{"learner":{"attributes":{"best_iteration":"9","best_score":"0.00333055786844296","scikit_learn":"{\"_estimator_type\": \"classifier\"}"},"feature_names":[],"feature_types":[],"gradient_booster":{"model":{"gbtree_model_param":{"num_parallel_tree":"1","num_trees":"160"},"iteration_indptr":[0,4,8,12,16,20,24,28,32,36,40,44,48,52,56,60,64,68,72,76,80,84,88,92,96,100,104,108,112,116,120,124,128,132,136,140,144,148,152,156,160],"tree_info":[0,1,2,3,0,1,2,3,0,1,2,3,0,1,2,3,0,1,2,3,0,1,2,3,0,1,2,3,0,1,2,3,0,1,2,3,0,1,2,3,0,1,2,3,0,1,2,3,0,1,2,3,0,1,2,3,0,1,2,3,0,1,2,3,0,1,2,3,0,1,2,3,0,1,2,3,0,1,2,3,0,1,2,3,0,1,2,3,0,1,2,3,0,1,2,3,0,1,2,3,0,1,2,3,0,1,2,3,0,1,2,3,0,1,2,3,0,1,2,3,0,1,2,3,0,1,2,3,0,1,2,3,0,1,2,3,0,1,2,3,0,1,2,3,0,1,2,3,0,1,2,3,0,1,2,3,0,1,2,3],"trees":[{"base_weights":[-3.449264E-2,-5.316913E-2,2.753277E-1,7.171017E-1,-5.308121E-2,9.4462717E-1,-5.2502993E-2,1.138954E0,-5.2072722E-2,1.3344884E0,-5.1783986E-2,1.1553698E-1,-5.0181817E-2],"categories":[],"categories_nodes":[],"categories_segments":[],"categories_sizes":[],"default_left":[0,0,0,0,0,0,0,0,0,0,0,0,0],"id":0,"left_children":[1,-1,3,5,-1,7,-1,9,-1,11,-1,-1,-1],"loss_changes":[3.7507584E2,0E0,5.3467676E2,2.748669E2,0E0,2.3461401E2,0E0,2.3608307E2,0E0,1.3204663E2,0E0,0E0,0E0],"parents":[2147483647,0,0,2,2,3,3,5,5,7,7,9,9],"right_children":[2,-1,4,6,-1,8,-1,10,-1,12,-1,-1,-1],"split_conditions":[9.4E1,-5.316913E-2,3.363163E-3,3.852E1,-5.308121E-2,2.823267E-4,-5.2502993E-2,1.658783E-2,-5.2072722E-2,5.061584E-3,-5.1783986E-2,1.1553698E-1,-5.0181817E-2],"split_indices":[0,0,8,2,0,16,0,10,0,11,0,0,0],"split_type":[0,0,0,0,0,0,0,0,0,0,0,0,0],"sum_hessian":[1.91775E3,6.31875E2,1.285875E3,8.74875E2,4.11E2,7.51125E2,1.2375E2,6.70125E2,8.1E1,6.045E2,6.5625E1,5.73E2,3.15E1],"tree_param":{"num_deleted":"0","num_feature":"24","num_nodes":"13","size_leaf_vector":"1"}},{"base_weights":[4.4515625E-1,5.525523E-1,-5.2723806E-2,-5.258981E-2,6.571783E-1,1.3372014E0,4.016177E-1,1.4434261E0,-4.8931215E-2,7.584383E-2,1.102249E0,1.7398137E0,5.913832E-1,-1.0118302E-1,1.5463203E0,1.5624366E0,-5.200638E-2,1.5536363E-1,4.1539297E-2,-3.142729E-2,1.2520805E-1,-3.0061854E-2,8.446377E-2,7.375238E-2,1.415111E-1,1.3707678E-1,-4.819753E-2],"categories":[],"categories_nodes":[],"categories_segments":[],"categories_sizes":[],"default_left":[0,0,0,0,0,0,0,0,0,0,0,0,0,0,0,0,0,0,0,0,0,0,0,0,0,0,0],"id":1,"left_children":[1,3,-1,-1,5,7,9,11,-1,13,15,17,19,21,23,25,-1,-1,-1,-1,-1,-1,-1,-1,-1,-1,-1],"loss_changes":[2.282016E2,2.2229059E2,0E0,0E0,2.7890442E2,9.255707E1,2.6759772E2,1.0315906E2,0E0,2.0986292E2,3.020804E2,7.3929504E1,1.0693274E2,2.2865523E2,8.785385E0,9.849579E1,0E0,0E0,0E0,0E0,0E0,0E0,0E0,0E0,0E0,0E0,0E0],"parents":[2147483647,0,0,1,1,4,4,5,5,6,6,7,7,9,9,10,10,11,11,12,12,13,13,14,14,15,15],"right_children":[2,4,-1,-1,6,8,10,12,-1,14,16,18,20,22,24,26,-1,-1,-1,-1,-1,-1,-1,-1,-1,-1,-1],"split_conditions":[1.658783E-2,9E1,-5.2723806E-2,-5.258981E-2,9.4E1,5.061584E-3,1E0,5.061584E-3,-4.8931215E-2,1E0,3.363163E-3,3.363163E-3,-1.16E0,9.966368E-1,-2.0526989E0,5.061584E-3,-5.200638E-2,1.5536363E-1,4.1539297E-2,-3.142729E-2,1.2520805E-1,-3.0061854E-2,8.446377E-2,7.375238E-2,1.415111E-1,1.3707678E-1,-4.819753E-2],"split_indices":[10,0,0,0,0,11,8,12,0,16,9,9,7,12,7,11,0,0,0,0,0,0,0,0,0,0,0],"split_type":[0,0,0,0,0,0,0,0,0,0,0,0,0,0,0,0,0,0,0,0,0,0,0,0,0,0,0],"sum_hessian":[1.9185E3,1.749375E3,1.69125E2,1.38375E2,1.611E3,4.38E2,1.173E3,4.15875E2,2.2125E1,8.02125E2,3.70875E2,3.07125E2,1.0875E2,7.17E2,8.5125E1,2.94E2,7.6875E1,2.625E2,4.4625E1,5.4375E1,5.4375E1,5.805E2,1.365E2,2.475E1,6.0375E1,2.7525E2,1.875E1],"tree_param":{"num_deleted":"0","num_feature":"24","num_nodes":"27","size_leaf_vector":"1"}},{"base_weights":[-1.7397171E-1,1.7605585E0,-3.292437E-1,1.4445798E-1,6.357333E-2,-5.2685183E-1,3.9660132E-1,-5.3226087E-2,-2.16179E-1,1.6708447E0,-3.1638762E-1,-1.4575659E-1,-4.7681755E-1,1.791404E0,-4.0727273E-2,1.340171E0,-5.3722125E-1,-2.0661345E-1,9.173333E-1,7.5061726E-3,-5.418182E-1,1.5132314E-1,1.8051282E-2,1.2512168E-1,2.1894736E-2,-5.864699E-1,8.592592E-2,1.4873239E-2,-1.9279012E-2,1.4222222E-2,9.303703E-2,-1.4344826E-2,-4.6441026E-2,-5.1128205E-2,-3.1507693E-2,3.5809524E-2,-2.9968254E-2],"categories":[],"categories_nodes":[],"categories_segments":[],"categories_sizes":[],"default_left":[0,0,0,0,0,0,0,0,0,0,0,0,0,0,0,0,0,0,0,0,0,0,0,0,0,0,0,0,0,0,0,0,0,0,0,0,0],"id":2,"left_children":[1,3,5,-1,-1,7,9,-1,11,13,15,17,19,21,-1,23,25,27,29,-1,31,-1,-1,-1,-1,33,35,-1,-1,-1,-1,-1,-1,-1,-1,-1,-1],"loss_changes":[5.791941E2,3.3168335E0,2.563802E2,0E0,0E0,5.9920197E1,3.4870874E2,0E0,7.707081E0,3.792209E1,9.096893E1,2.2464098E1,3.5906868E0,1.9244263E1,0E0,5.789562E0,6.935158E0,4.5211945E0,2.693718E0,0E0,7.731514E-1,0E0,0E0,0E0,0E0,1.373169E0,3.0842965E0,0E0,0E0,0E0,0E0,0E0,0E0,0E0,0E0,0E0,0E0],"parents":[2147483647,0,0,1,1,2,2,5,5,6,6,8,8,9,9,10,10,11,11,12,12,13,13,15,15,16,16,17,17,18,18,20,20,25,25,26,26],"right_children":[2,4,6,-1,-1,8,10,-1,12,14,16,18,20,22,-1,24,26,28,30,-1,32,-1,-1,-1,-1,34,36,-1,-1,-1,-1,-1,-1,-1,-1,-1,-1],"split_conditions":[9E1,3.89E1,1.4544666E-2,1.4445798E-1,6.357333E-2,2.2460483E-1,-2.0526989E0,-5.3226087E-2,9.688169E-1,5.061584E-3,9.539974E-1,1.3484751E-2,9.24E1,3.852E1,-4.0727273E-2,1.495E2,5.26E1,7E0,4.364988E1,7.5061726E-3,2.8E-1,1.5132314E-1,1.8051282E-2,1.2512168E-1,2.1894736E-2,3.363163E-3,9.47E1,1.4873239E-2,-1.9279012E-2,1.4222222E-2,9.303703E-2,-1.4344826E-2,-4.6441026E-2,-5.1128205E-2,-3.1507693E-2,3.5809524E-2,-2.9968254E-2],"split_indices":[0,2,12,0,0,8,7,0,14,11,12,14,0,2,0,1,5,6,5,0,17,0,0,0,0,8,0,0,0,0,0,0,0,0,0,0,0],"split_type":[0,0,0,0,0,0,0,0,0,0,0,0,0,0,0,0,0,0,0,0,0,0,0,0,0,0,0,0,0,0,0,0,0,0,0,0,0],"sum_hessian":[1.92525E3,1.4175E2,1.7835E3,1.33875E2,7.875E0,1.4025E3,3.81E2,9.6825E2,4.3425E2,1.36125E2,2.44875E2,3.44625E2,8.9625E1,1.29375E2,6.75E0,2.775E1,2.17125E2,3.27375E2,1.725E1,8.625E0,8.1E1,1.21125E2,8.25E0,2.2125E1,5.625E0,2.0175E2,1.5375E1,2.5125E1,3.0225E2,5.25E0,1.2E1,9.375E0,7.1625E1,1.545E2,4.725E1,9E0,6.375E0],"tree_param":{"num_deleted":"0","num_feature":"24","num_nodes":"37","size_leaf_vector":"1"}},{"base_weights":[-2.4804817E-1,-3.905824E-1,1.5773633E-1,-4.471751E-1,-2.9964807E-2,-4.5770094E-1,1.20115936E-1,-3.9566788E-1,1.7569321E0,-4.2930946E-1,-5.538572E-1,-4.4213694E-1,-1.9594203E-1,6.4463764E-2,1.5251064E-1,-4.4011092E-1,-2.8235295E-1,-9.650794E-3,-5.605263E-1,2.37037E-3,-4.5967367E-1,3.7925925E-2,-3.1551155E-1,-2.0102562E-2,-3.596308E-2,-3.584E-2,-0E0,-4.8604444E-2,-3.692827E-2,-3.816181E-2,-0E0,-3.8537633E-2,-2.232558E-3],"categories":[],"categories_nodes":[],"categories_segments":[],"categories_sizes":[],"default_left":[0,0,0,0,0,0,0,0,0,0,0,0,0,0,0,0,0,0,0,0,0,0,0,0,0,0,0,0,0,0,0,0,0],"id":3,"left_children":[1,3,-1,5,7,9,-1,11,13,15,17,19,21,-1,-1,23,25,-1,27,-1,29,-1,31,-1,-1,-1,-1,-1,-1,-1,-1,-1,-1],"loss_changes":[6.1159174E2,3.6893158E1,0E0,3.2891663E1,1.6310426E2,3.6112976E0,0E0,1.6067657E0,2.9056244E0,1.5249023E0,7.0075226E-1,1.5238342E0,3.63169E0,0E0,0E0,1.6263885E0,4.1743054E0,0E0,8.4965515E-1,0E0,1.1637039E0,0E0,1.6374638E0,0E0,0E0,0E0,0E0,0E0,0E0,0E0,0E0,0E0,0E0],"parents":[2147483647,0,0,1,1,3,3,4,4,5,5,7,7,8,8,9,9,10,10,11,11,12,12,15,15,16,16,18,18,20,20,22,22],"right_children":[2,4,-1,6,8,10,-1,12,14,16,18,20,22,-1,-1,24,26,-1,28,-1,30,-1,32,-1,-1,-1,-1,-1,-1,-1,-1,-1,-1],"split_conditions":[5.061584E-3,3.851E1,1.5773633E-1,1.878E2,4.0436125E-1,8.534967E-2,1.20115936E-1,1.556E0,3.8614918E1,3.822E1,-5.6916413E0,-9.98E0,-2.2281306E0,6.4463764E-2,1.5251064E-1,9.68E-1,2.16E1,-9.650794E-3,-4.2E-1,2.37037E-3,2.907E0,3.7925925E-2,1.1335677E1,-2.0102562E-2,-3.596308E-2,-3.584E-2,-0E0,-4.8604444E-2,-3.692827E-2,-3.816181E-2,-0E0,-3.8537633E-2,-2.232558E-3],"split_indices":[11,21,0,1,14,12,0,4,21,21,7,19,18,0,0,4,6,0,7,0,20,0,3,0,0,0,0,0,0,0,0,0,0],"split_type":[0,0,0,0,0,0,0,0,0,0,0,0,0,0,0,0,0,0,0,0,0,0,0,0,0,0,0,0,0,0,0,0,0],"sum_hessian":[1.929375E3,1.81425E3,1.15125E2,1.567125E3,2.47125E2,1.56E3,7.125E0,2.0625E2,4.0875E1,1.213125E3,3.46875E2,1.64625E2,4.1625E1,7.125E0,3.375E1,1.125375E3,8.775E1,6.375E0,3.405E2,5.25E0,1.59375E2,5.25E0,3.6375E1,5.7E1,1.068375E3,5.475E1,3.3E1,2.235E2,1.17E2,1.53E2,6.375E0,2.175E1,1.4625E1],"tree_param":{"num_deleted":"0","num_feature":"24","num_nodes":"33","size_leaf_vector":"1"}},{"base_weights":[-1.0583251E-2,2.8522676E-1,-5.2199867E-2,-5.2169774E-2,6.9550145E-1,8.8948345E-1,-5.1936693E-2,1.0599656E0,-5.1186126E-2,1.2244408E0,-5.151362E-2,1.05055645E-1,-4.8940104E-2],"categories":[],"categories_nodes":[],"categories_segments":[],"categories_sizes":[],"default_left":[0,0,0,0,0,0,0,0,0,0,0,0,0],"id":4,"left_children":[1,3,-1,-1,5,7,-1,9,-1,11,-1,-1,-1],"loss_changes":[3.6509018E2,5.0659177E2,0E0,0E0,2.3986249E2,2.100586E2,0E0,2.0360419E2,0E0,1.0878412E2,0E0,0E0,0E0],"parents":[2147483647,0,0,1,1,4,4,5,5,7,7,9,9],"right_children":[2,4,-1,-1,6,8,-1,10,-1,12,-1,-1,-1],"split_conditions":[3.363163E-3,9.4E1,-5.2199867E-2,-5.2169774E-2,3.852E1,2.823267E-4,-5.1936693E-2,1.658783E-2,-5.1186126E-2,5.061584E-3,-5.151362E-2,1.05055645E-1,-4.8940104E-2],"split_indices":[8,0,0,0,2,16,0,10,0,11,0,0,0],"split_type":[0,0,0,0,0,0,0,0,0,0,0,0,0],"sum_hessian":[1.9191412E3,1.3139894E3,6.051519E2,3.9954315E2,9.144462E2,7.998013E2,1.1464496E2,7.201752E2,7.96261E1,6.573223E2,6.2852844E1,6.275781E2,2.9744175E1],"tree_param":{"num_deleted":"0","num_feature":"24","num_nodes":"13","size_leaf_vector":"1"}},{"base_weights":[3.9551947E-1,4.89586E-1,-5.2386217E-2,-5.1632557E-2,5.844751E-1,1.1814169E0,3.474715E-1,1.2771071E0,-4.827069E-2,4.3761875E-2,9.7943836E-1,1.5170251E0,5.5829614E-1,-1.269972E-1,1.3710375E0,1.073749E0,-4.7775056E-2,1.3568081E-1,8.976584E-2,-5.019726E-2,9.7352296E-2,-2.7479073E-2,1.0109964E-1,6.3030384E-2,1.2560591E-1,1.000975E-1,3.6171272E-2],"categories":[],"categories_nodes":[],"categories_segments":[],"categories_sizes":[],"default_left":[0,0,0,0,0,0,0,0,0,0,0,0,0,0,0,0,0,0,0,0,0,0,0,0,0,0,0],"id":5,"left_children":[1,3,-1,-1,5,7,9,11,-1,13,15,17,19,21,23,25,-1,-1,-1,-1,-1,-1,-1,-1,-1,-1,-1],"loss_changes":[1.9501886E2,1.9534149E2,0E0,0E0,2.3521844E2,8.22558E1,2.2956781E2,7.574835E1,0E0,1.8445197E2,5.8867218E1,2.0077576E1,9.14049E1,2.1708383E2,8.205627E0,3.915518E1,0E0,0E0,0E0,0E0,0E0,0E0,0E0,0E0,0E0,0E0,0E0],"parents":[2147483647,0,0,1,1,4,4,5,5,6,6,7,7,9,9,10,10,11,11,12,12,13,13,14,14,15,15],"right_children":[2,4,-1,-1,6,8,10,12,-1,14,16,18,20,22,24,26,-1,-1,-1,-1,-1,-1,-1,-1,-1,-1,-1],"split_conditions":[1.658783E-2,9E1,-5.2386217E-2,-5.1632557E-2,9.4E1,5.061584E-3,1E0,5.061584E-3,-4.827069E-2,1E0,5.061584E-3,3.363163E-3,-2E0,3.852E1,-2.0526989E0,5.061584E-3,-4.7775056E-2,1.3568081E-1,8.976584E-2,-5.019726E-2,9.7352296E-2,-2.7479073E-2,1.0109964E-1,6.3030384E-2,1.2560591E-1,1.000975E-1,3.6171272E-2],"split_indices":[10,0,0,0,0,11,8,12,0,16,11,8,7,2,7,12,0,0,0,0,0,0,0,0,0,0,0],"split_type":[0,0,0,0,0,0,0,0,0,0,0,0,0,0,0,0,0,0,0,0,0,0,0,0,0,0,0],"sum_hessian":[1.9679591E3,1.8071974E3,1.6076176E2,1.3851535E2,1.668682E3,4.721736E2,1.1965084E3,4.4871118E2,2.346241E1,8.0953973E2,3.8696872E2,3.348613E2,1.138499E2,7.182629E2,9.127682E1,3.657585E2,2.1210218E1,2.2651009E2,1.0835121E2,4.0517433E1,7.3332466E1,6.2267834E2,9.558455E1,2.550236E1,6.577446E1,2.8296866E2,8.278983E1],"tree_param":{"num_deleted":"0","num_feature":"24","num_nodes":"27","size_leaf_vector":"1"}},{"base_weights":[-1.5423149E-1,-3.3347875E-1,7.038788E-1,-5.0281703E-1,3.3136362E-1,-5.0589465E-2,1.6496273E0,-5.27525E-1,-3.0158693E-1,-9.170883E-2,1.4695264E0,1.2443017E0,-3.7585428E-1,1.7378975E0,-3.8541228E-2,-5.123135E-1,-5.2333638E-2,8.719309E-1,-4.5300725E-1,1.2686064E0,-2.2738251E-1,1.5036055E0,5.263298E-2,1.2903117E-1,-3.9503217E-2,-5.1245624E-1,1.2655292E-1,1.4566581E-1,1.1455784E0,-4.9313805E-1,-6.0493565E-1,2.8163357E-2,9.309018E-2,-4.2814422E-2,-2.2380704E-1,3.8159896E-2,1.1662957E-1,-4.8967697E-2,-5.0087047E-1,1.25006E-1,6.438334E-2,-5.410589E-1,-2.4018504E-1,-2.4529216E-1,9.281932E-2,1.129096E-1,2.1339135E-2,-3.857179E-2,-5.0694883E-2,-4.925338E-2,-1.5382771E-2,-2.6309665E-2,1.6681036E-2,-2.2030378E-2,3.877071E-2,-4.477705E-2,-2.7119059E-3,-4.7429383E-2,-2.6414407E-2,-0E0,-3.7805773E-2,-3.8950946E-2,3.6517616E-2],"categories":[],"categories_nodes":[],"categories_segments":[],"categories_sizes":[],"default_left":[0,0,0,0,0,0,0,0,0,0,0,0,0,0,0,0,0,0,0,0,0,0,0,0,0,0,0,0,0,0,0,0,0,0,0,0,0,0,0,0,0,0,0,0,0,0,0,0,0,0,0,0,0,0,0,0,0,0,0,0,0,0,0],"id":6,"left_children":[1,3,5,7,9,11,13,15,17,19,21,23,25,27,-1,29,-1,31,33,35,37,39,-1,-1,-1,41,43,-1,45,47,49,-1,-1,-1,51,-1,-1,53,55,-1,-1,57,59,61,-1,-1,-1,-1,-1,-1,-1,-1,-1,-1,-1,-1,-1,-1,-1,-1,-1,-1,-1],"loss_changes":[2.9203433E2,1.7712068E2,2.3463736E2,5.740967E0,1.5439952E2,7.782208E1,2.9056854E1,1.2903442E0,2.566771E1,4.3315224E1,2.6916504E-1,2.52644E1,1.0382343E1,2.8789062E0,0E0,1.0029602E0,0E0,1.4322147E0,1.981308E0,1.560646E0,1.0254419E1,7.7449036E-1,0E0,0E0,0E0,4.839344E-1,1.3158599E1,0E0,4.0088844E0,5.061188E-1,3.0003357E-1,0E0,0E0,0E0,1.8200943E0,0E0,0E0,1.6086452E1,2.0954762E0,0E0,0E0,5.648556E-1,6.980817E-1,4.5573006E0,0E0,0E0,0E0,0E0,0E0,0E0,0E0,0E0,0E0,0E0,0E0,0E0,0E0,0E0,0E0,0E0,0E0,0E0,0E0],"parents":[2147483647,0,0,1,1,2,2,3,3,4,4,5,5,6,6,7,7,8,8,9,9,10,10,11,11,12,12,13,13,15,15,17,17,18,18,19,19,20,20,21,21,25,25,26,26,28,28,29,29,30,30,34,34,37,37,38,38,41,41,42,42,43,43],"right_children":[2,4,6,8,10,12,14,16,18,20,22,24,26,28,-1,30,-1,32,34,36,38,40,-1,-1,-1,42,44,-1,46,48,50,-1,-1,-1,52,-1,-1,54,56,-1,-1,58,60,62,-1,-1,-1,-1,-1,-1,-1,-1,-1,-1,-1,-1,-1,-1,-1,-1,-1,-1,-1],"split_conditions":[3.363163E-3,1.2277611E-2,3.363163E-3,2.823267E-4,1.5158801E-2,9.95368E-1,1.658783E-2,1.658783E-2,9.6646756E-1,9.911686E-1,1.673E2,1.658783E-2,5.061584E-3,9.321183E-1,-3.8541228E-2,8.3738303E-1,-5.2333638E-2,1.2967411E0,2.52E0,7.15E0,1.12E1,4.87E1,5.263298E-2,1.2903117E-1,-3.9503217E-2,1.807E1,1.3484751E-2,1.4566581E-1,6E-1,5.061584E-3,5.51E1,2.8163357E-2,9.309018E-2,-4.2814422E-2,6.91E0,3.8159896E-2,1.1662957E-1,1.2289354E1,1.681E1,1.25006E-1,6.438334E-2,1.453E2,1.365E2,2.182E0,9.281932E-2,1.129096E-1,2.1339135E-2,-3.857179E-2,-5.0694883E-2,-4.925338E-2,-1.5382771E-2,-2.6309665E-2,1.6681036E-2,-2.2030378E-2,3.877071E-2,-4.477705E-2,-2.7119059E-3,-4.7429383E-2,-2.6414407E-2,-0E0,-3.7805773E-2,-3.8950946E-2,3.6517616E-2],"split_indices":[9,12,8,16,14,9,10,10,16,12,1,10,12,14,0,14,0,17,17,22,3,5,0,0,0,22,14,0,18,11,5,0,0,0,19,0,0,6,22,0,0,1,1,20,0,0,0,0,0,0,0,0,0,0,0,0,0,0,0,0,0,0,0],"split_type":[0,0,0,0,0,0,0,0,0,0,0,0,0,0,0,0,0,0,0,0,0,0,0,0,0,0,0,0,0,0,0,0,0,0,0,0,0,0,0,0,0,0,0,0,0,0,0,0,0,0,0,0,0,0,0,0,0,0,0,0,0,0,0],"sum_hessian":[1.8955542E3,1.5690651E3,3.2648914E2,1.2511965E3,3.1786847E2,1.8222343E2,1.442657E2,1.1108751E3,1.4032152E2,2.325439E2,8.5324554E1,3.554739E1,1.4667606E2,1.389297E2,5.3360047E0,1.0006257E3,1.10249374E2,1.4994486E1,1.25327034E2,1.9753279E1,2.1279063E2,8.030409E1,5.0204625E0,2.9559517E1,5.9878736E0,1.1576678E2,3.0909271E1,1.1869478E2,2.023492E1,8.395416E2,1.6108406E2,6.948677E0,8.045809E0,8.9815094E1,3.5511944E1,5.136212E0,1.4617066E1,1.3051338E2,8.227725E1,7.194928E1,8.354817E0,1.02424225E2,1.3342554E1,2.335992E1,7.5493503E0,1.4576268E1,5.658653E0,7.8679553E2,5.274613E1,1.5557315E2,5.5109034E0,2.9416029E1,6.095914E0,9.253713E1,3.797625E1,7.223468E1,1.0042568E1,7.890037E1,2.3523857E1,7.8825836E0,5.45997E0,1.8037102E1,5.3228197E0],"tree_param":{"num_deleted":"0","num_feature":"24","num_nodes":"63","size_leaf_vector":"1"}},{"base_weights":[-2.3746239E-1,-4.4689664E-1,1.5404238E-1,-5.835795E-1,1.3657023E-1,-5.952785E-1,1.0859691E-1,-6.5382946E-1,-2.2202225E-1,-7.209236E-4,-5.247578E-2,-5.2464087E-2,1.3735107E-1],"categories":[],"categories_nodes":[],"categories_segments":[],"categories_sizes":[],"default_left":[0,0,0,0,0,0,0,0,0,0,0,0,0],"id":7,"left_children":[1,3,-1,5,-1,7,-1,9,11,-1,-1,-1,-1],"loss_changes":[8.680872E2,5.15435E2,0E0,3.8311035E1,0E0,3.5254456E1,0E0,1.7197876E0,1.9034099E2,0E0,0E0,0E0,0E0],"parents":[2147483647,0,0,1,1,3,3,5,5,7,7,8,8],"right_children":[2,4,-1,6,-1,8,-1,10,12,-1,-1,-1,-1],"split_conditions":[1.658783E-2,5.061584E-3,1.5404238E-1,1.878E2,1.3657023E-1,3.852E1,1.0859691E-1,8.624414E1,4.0436125E-1,-7.209236E-4,-5.247578E-2,-5.2464087E-2,1.3735107E-1],"split_indices":[10,11,0,1,0,2,0,0,14,0,0,0,0],"split_type":[0,0,0,0,0,0,0,0,0,0,0,0,0],"sum_hessian":[1.9129175E3,1.7452595E3,1.6765802E2,1.642282E3,1.0297751E2,1.6336302E3,8.651694E0,1.4104486E3,2.2318167E2,5.106708E0,1.4053419E3,1.8331685E2,3.9864815E1],"tree_param":{"num_deleted":"0","num_feature":"24","num_nodes":"13","size_leaf_vector":"1"}},{"base_weights":[-1.8350838E-2,2.4705188E-1,-5.1324952E-2,4.6842197E-1,-5.3411152E-2,6.289768E-1,-5.3062075E-1,7.5346404E-1,-5.0965164E-2,-2.831407E-1,-4.9503785E-2,8.131867E-1,-4.8485916E-2,2.2969004E-2,-5.2038944E-1,6.92763E-2,1.1492411E-2,3.4614626E-2,-1.2469309E-2,-4.681078E-2,-1.2877124E-2],"categories":[],"categories_nodes":[],"categories_segments":[],"categories_sizes":[],"default_left":[0,0,0,0,0,0,0,0,0,0,0,0,0,0,0,0,0,0,0,0,0],"id":8,"left_children":[1,3,-1,5,-1,7,9,11,-1,13,-1,15,-1,17,19,-1,-1,-1,-1,-1,-1],"loss_changes":[3.1678622E2,2.7223727E2,0E0,1.7408669E2,0E0,1.4782452E2,2.7479248E0,6.9858795E1,0E0,3.3016539E0,0E0,2.8324097E1,0E0,1.6298368E0,2.1505642E-1,0E0,0E0,0E0,0E0,0E0,0E0],"parents":[2147483647,0,0,1,1,3,3,5,5,6,6,7,7,9,9,11,11,13,13,14,14],"right_children":[2,4,-1,6,-1,8,10,12,-1,14,-1,16,-1,18,20,-1,-1,-1,-1,-1,-1],"split_conditions":[3.363163E-3,5.061584E-3,-5.1324952E-2,3.846E1,-5.3411152E-2,1.658783E-2,3.864E1,5.061584E-3,-5.0965164E-2,2.2E-1,-4.9503785E-2,1.703E0,-4.8485916E-2,-1.16E0,6.4E-1,6.92763E-2,1.1492411E-2,3.4614626E-2,-1.2469309E-2,-4.681078E-2,-1.2877124E-2],"split_indices":[8,12,0,21,0,10,21,11,0,19,0,4,0,7,18,0,0,0,0,0,0],"split_type":[0,0,0,0,0,0,0,0,0,0,0,0,0,0,0,0,0,0,0,0,0],"sum_hessian":[1.9115984E3,1.3409576E3,5.706406E2,1.0805154E3,2.6044235E2,9.316474E2,1.4886794E2,8.4901025E2,8.263716E1,4.1660545E1,1.072074E2,8.140726E2,3.493764E1,1.8229832E1,2.3430714E1,7.537777E2,6.0294857E1,5.402042E0,1.282779E1,1.8348818E1,5.081897E0],"tree_param":{"num_deleted":"0","num_feature":"24","num_nodes":"21","size_leaf_vector":"1"}},{"base_weights":[3.7833506E-1,4.9050677E-1,-2.0863189E-1,2.5753757E-1,1.0421488E0,1.4060734E-1,-5.3037625E-2,1.554162E-1,1.0881267E0,1.1380072E0,-4.778774E-2,-4.8774973E-2,2.9628628E-1,9.690772E-3,8.563784E-1,9.104879E-2,7.0829266E-1,1.2836555E0,6.2525153E-1,1.1876429E-1,9.0904325E-1,-1.269864E-1,8.132897E-1,1.2404197E0,-4.955484E-2,8.910842E-1,1.1064394E-2,1.074905E-1,1.0293317E0,1.0209318E0,-5.0064586E-2,-4.302058E-2,9.496113E-2,1.2351718E0,-3.854619E-2,-7.658453E-3,-4.937685E-2,8.5017845E-2,-4.8324678E-2,1.0764399E-1,-4.124107E-2,2.6105573E-2,8.9804105E-2,3.355005E-2,9.320574E-2,1.0247903E-1,-4.1306667E-2,-1.3284375E-2,6.699858E-2,1.1142514E-1,2.8024532E-2],"categories":[],"categories_nodes":[],"categories_segments":[],"categories_sizes":[],"default_left":[0,0,0,0,0,0,0,0,0,0,0,0,0,0,0,0,0,0,0,0,0,0,0,0,0,0,0,0,0,0,0,0,0,0,0,0,0,0,0,0,0,0,0,0,0,0,0,0,0,0,0],"id":9,"left_children":[1,3,5,7,9,11,-1,13,15,17,-1,-1,19,21,23,-1,25,27,29,31,33,35,37,39,-1,41,-1,-1,43,45,-1,47,-1,49,-1,-1,-1,-1,-1,-1,-1,-1,-1,-1,-1,-1,-1,-1,-1,-1,-1],"loss_changes":[1.3210593E2,2.1541687E2,5.1383007E1,9.990318E1,7.955029E1,2.15405E1,0E0,1.07750015E2,6.897125E-1,3.3458374E1,0E0,0E0,1.6152184E1,9.6725395E1,1.0428682E2,0E0,1.5581989E0,2.7894897E0,5.441478E1,2.1260948E1,1.6414759E1,1.1201697E1,4.63722E1,2.8018494E1,0E0,8.7707424E-1,0E0,0E0,5.1771927E0,3.424745E1,0E0,1.1483044E1,0E0,2.6386871E0,0E0,0E0,0E0,0E0,0E0,0E0,0E0,0E0,0E0,0E0,0E0,0E0,0E0,0E0,0E0,0E0,0E0],"parents":[2147483647,0,0,1,1,2,2,3,3,4,4,5,5,7,7,8,8,9,9,12,12,13,13,14,14,16,16,17,17,18,18,19,19,20,20,21,21,22,22,23,23,25,25,28,28,29,29,31,31,33,33],"right_children":[2,4,6,8,10,12,-1,14,16,18,-1,-1,20,22,24,-1,26,28,30,32,34,36,38,40,-1,42,-1,-1,44,46,-1,48,-1,50,-1,-1,-1,-1,-1,-1,-1,-1,-1,-1,-1,-1,-1,-1,-1,-1,-1],"split_conditions":[3.363163E-3,9.9080294E-1,3.363163E-3,9.9080294E-1,5.061584E-3,9.840835E-1,-5.3037625E-2,9.911686E-1,1.3484751E-2,1.3484751E-2,-4.778774E-2,-4.8774973E-2,5.8991766E-1,3.851E1,1.3484751E-2,9.104879E-2,2.19E0,5.061584E-3,5.061584E-3,1.3001923E-2,1.3484751E-2,5.061584E-3,1.3484751E-2,5.061584E-3,-4.955484E-2,1.356E0,1.1064394E-2,1.074905E-1,9.2E0,3.856E1,-5.0064586E-2,3.851E1,9.496113E-2,2.182E0,-3.854619E-2,-7.658453E-3,-4.937685E-2,8.5017845E-2,-4.8324678E-2,1.0764399E-1,-4.124107E-2,2.6105573E-2,8.9804105E-2,3.355005E-2,9.320574E-2,1.0247903E-1,-4.1306667E-2,-1.3284375E-2,6.699858E-2,1.1142514E-1,2.8024532E-2],"split_indices":[9,8,8,16,11,9,0,12,14,14,0,0,12,21,14,0,17,12,12,16,14,11,14,11,0,20,0,0,3,21,0,21,0,20,0,0,0,0,0,0,0,0,0,0,0,0,0,0,0,0,0],"split_type":[0,0,0,0,0,0,0,0,0,0,0,0,0,0,0,0,0,0,0,0,0,0,0,0,0,0,0,0,0,0,0,0,0,0,0,0,0,0,0,0,0,0,0,0,0,0,0,0,0,0,0],"sum_hessian":[2.0013197E3,1.6808585E3,3.2046115E2,1.1837021E3,4.9715637E2,1.8139929E2,1.3906187E2,1.0560074E3,1.2769481E2,4.7030057E2,2.6855814E1,3.0088116E1,1.5131117E2,8.758688E2,1.8013864E2,1.09501E2,1.8193808E1,3.6405148E2,1.06249084E2,1.1908992E2,3.2221252E1,7.493141E2,1.2655468E2,1.4329298E2,3.684567E1,1.2737602E1,5.456206E0,2.8842862E2,7.5622856E1,8.111124E1,2.5137846E1,1.04432526E2,1.4657395E1,2.641186E1,5.809392E0,7.066635E2,4.2650578E1,1.0811494E2,1.8439743E1,1.3569041E2,7.6025586E0,5.130437E0,7.6071653E0,1.528469E1,6.0338165E1,6.9755974E1,1.1355265E1,9.299589E1,1.1436641E1,2.1399374E1,5.0124865E0],"tree_param":{"num_deleted":"0","num_feature":"24","num_nodes":"51","size_leaf_vector":"1"}},{"base_weights":[-1.5837562E-1,1.4647454E0,-3.0509952E-1,1.4886352E0,5.133295E-2,-4.8359838E-1,5.523654E-1,5.07295E-2,1.20776296E-1,-5.17915E-2,1.1233984E-1,-1.7144237E-1,1.1216561E0,-2.9911762E-1,1.2517849E0,9.999544E-1,-3.8456988E-1,4.5130998E-1,1.3721541E0,4.4030745E-2,-3.4141994E-1,1.3867185E0,-4.0133007E-2,1.9103806E-2,1.07340984E-1,-5.0948244E-1,3.1244868E-2,-2.5084904E-1,1.3368596E0,1.4713534E0,-3.8368046E-2,1.858785E-2,-3.0147268E-2,1.2034263E-1,-1.3656982E-2,-4.9284205E-2,-4.3105152E-3,-3.07663E-2,8.157049E-2,-4.327687E-2,4.0457744E-2,5.1041007E-2,1.21459045E-1,1.22809134E-1,6.890815E-2],"categories":[],"categories_nodes":[],"categories_segments":[],"categories_sizes":[],"default_left":[0,0,0,0,0,0,0,0,0,0,0,0,0,0,0,0,0,0,0,0,0,0,0,0,0,0,0,0,0,0,0,0,0,0,0,0,0,0,0,0,0,0,0,0,0],"id":10,"left_children":[1,3,5,7,-1,9,11,-1,-1,-1,13,15,17,19,21,23,25,27,29,-1,31,33,-1,-1,-1,35,37,39,41,43,-1,-1,-1,-1,-1,-1,-1,-1,-1,-1,-1,-1,-1,-1,-1],"loss_changes":[4.4357025E2,9.638672E-1,2.618496E2,5.951233E-1,0E0,1.383966E2,1.2203064E2,0E0,0E0,0E0,1.4429393E2,3.305664E1,2.630156E1,8.33383E0,2.06287E1,4.3371887E0,5.984522E0,3.0401785E1,2.3281647E1,0E0,4.5718555E0,1.4770035E1,0E0,0E0,0E0,3.962017E0,1.1764887E1,6.4790998E0,6.202507E-1,1.72435E0,0E0,0E0,0E0,0E0,0E0,0E0,0E0,0E0,0E0,0E0,0E0,0E0,0E0,0E0,0E0],"parents":[2147483647,0,0,1,1,2,2,3,3,5,5,6,6,10,10,11,11,12,12,13,13,14,14,15,15,16,16,17,17,18,18,20,20,21,21,25,25,26,26,27,27,28,28,29,29],"right_children":[2,4,6,8,-1,10,12,-1,-1,-1,14,16,18,20,22,24,26,28,30,-1,32,34,-1,-1,-1,36,38,40,42,44,-1,-1,-1,-1,-1,-1,-1,-1,-1,-1,-1,-1,-1,-1,-1],"split_conditions":[9E1,3.915E1,3.363163E-3,-8.84E0,5.133295E-2,5.061584E-3,3.96E1,5.07295E-2,1.20776296E-1,-5.17915E-2,1.3484751E-2,7.798168E-1,1.09E1,9.8188984E-1,1.658783E-2,3.8827926E-1,5.061584E-3,5.01E1,5.061584E-3,4.4030745E-2,9.57E-1,3.852E1,-4.0133007E-2,1.9103806E-2,1.07340984E-1,3.75E1,1.3484751E-2,5.061584E-3,3.676E1,3.852E1,-3.8368046E-2,1.858785E-2,-3.0147268E-2,1.2034263E-1,-1.3656982E-2,-4.9284205E-2,-4.3105152E-3,-3.07663E-2,8.157049E-2,-4.327687E-2,4.0457744E-2,5.1041007E-2,1.21459045E-1,1.22809134E-1,6.890815E-2],"split_indices":[0,21,9,19,0,12,5,0,0,0,14,9,6,12,10,12,12,5,11,0,4,2,0,0,0,5,14,12,2,2,0,0,0,0,0,0,0,0,0,0,0,0,0,0,0],"split_type":[0,0,0,0,0,0,0,0,0,0,0,0,0,0,0,0,0,0,0,0,0,0,0,0,0,0,0,0,0,0,0,0,0,0,0,0,0,0,0,0,0,0,0,0,0],"sum_hessian":[1.8597078E3,1.5288715E2,1.7068206E3,1.4704192E2,5.845233E0,1.4135625E3,2.9325806E2,5.0032215E0,1.420387E2,1.1090977E3,3.0446484E2,1.2933728E2,1.6392078E2,2.2430905E2,8.015581E1,1.8840473E1,1.1049681E2,4.6060497E1,1.17860275E2,9.44901E0,2.1486005E2,7.487848E1,5.2773314E0,6.900248E0,1.1940225E1,8.526608E1,2.5230726E1,2.6101078E1,1.995942E1,1.1231373E2,5.54655E0,1.1515552E1,2.0334448E2,6.984962E1,5.028859E0,6.814053E1,1.7125557E1,1.8190596E1,7.0401306E0,1.9462183E1,6.638894E0,5.8499737E0,1.4109446E1,9.91802E1,1.3133525E1],"tree_param":{"num_deleted":"0","num_feature":"24","num_nodes":"45","size_leaf_vector":"1"}},{"base_weights":[-2.2963664E-1,-2.3979542E-1,8.280778E-1,-2.8991014E-1,-2.5863875E-2,1.56905E-2,9.7261585E-2,-4.9783316E-1,-2.7190557E-1,-1.7866972E-1,1.4618234E-1,-1.6117449E-1,-5.2845204E-1,-2.4724592E-1,-3.8371512E-1,-6.438464E-2,-4.1181383E-1,-3.958689E-2,2.8008047E-1,-2.7702197E-2,2.5637425E-3,-2.566161E-1,-4.5756087E-2,-2.2498256E-1,-3.8794133E-1,-4.3954426E-1,-2.4940003E-1,-3.6475694E-1,5.88172E-3,-4.7734705E-1,1.3675253E-2,3.571433E-2,-9.512522E-2,-3.0324813E-2,3.788109E-1,-0E0,-3.1040655E-2,1.1154081E-2,-1.8428355E-2,-8.417315E-3,-3.4302715E-2,-2.845929E-2,-4.2204108E-2,-5.634078E-3,-3.0871818E-2,-0E0,-4.5573357E-2,-1.4116041E-2,1.0285532E-2,-4.501756E-2,-1.455777E-2,-1.8046089E-2,5.9666517E-3,-3.0129015E-2,2.0135056E-2,4.9786877E-2,1.7943164E-2],"categories":[],"categories_nodes":[],"categories_segments":[],"categories_sizes":[],"default_left":[0,0,0,0,0,0,0,0,0,0,0,0,0,0,0,0,0,0,0,0,0,0,0,0,0,0,0,0,0,0,0,0,0,0,0,0,0,0,0,0,0,0,0,0,0,0,0,0,0,0,0,0,0,0,0,0,0],"id":11,"left_children":[1,3,5,7,9,-1,-1,11,13,15,17,19,21,23,25,27,29,31,33,-1,-1,35,-1,37,39,41,43,45,47,49,-1,-1,51,53,55,-1,-1,-1,-1,-1,-1,-1,-1,-1,-1,-1,-1,-1,-1,-1,-1,-1,-1,-1,-1,-1,-1],"loss_changes":[1.994748E1,1.9503181E1,3.5329275E0,5.108757E0,9.248278E0,0E0,0E0,8.493252E-1,3.4381409E0,4.797899E0,4.180585E0,5.597936E-1,7.5876045E-1,3.2141113E0,1.4446259E0,2.8140774E0,2.5189095E0,1.8283374E0,3.0859232E0,0E0,0E0,6.3412976E-1,0E0,1.9901428E0,1.5042534E0,6.8885803E-1,1.6824379E0,1.9429047E0,2.3564777E0,1.0125418E0,0E0,0E0,1.4866332E0,2.5230255E0,2.3297129E0,0E0,0E0,0E0,0E0,0E0,0E0,0E0,0E0,0E0,0E0,0E0,0E0,0E0,0E0,0E0,0E0,0E0,0E0,0E0,0E0,0E0,0E0],"parents":[2147483647,0,0,1,1,2,2,3,3,4,4,7,7,8,8,9,9,10,10,11,11,12,12,13,13,14,14,15,15,16,16,17,17,18,18,21,21,23,23,24,24,25,25,26,26,27,27,28,28,29,29,32,32,33,33,34,34],"right_children":[2,4,6,8,10,-1,-1,12,14,16,18,20,22,24,26,28,30,32,34,-1,-1,36,-1,38,40,42,44,46,48,50,-1,-1,52,54,56,-1,-1,-1,-1,-1,-1,-1,-1,-1,-1,-1,-1,-1,-1,-1,-1,-1,-1,-1,-1,-1,-1],"split_conditions":[1.936E0,2.765799E-1,9.38E1,8.99E1,9.6E1,1.56905E-2,9.7261585E-2,-2.31E0,9.8188984E-1,3.5597268E-1,-3.849005E-1,1.404E0,4.4E-1,9.877224E-1,1.16E1,4.4E-1,7.5151086E-1,8.105533E-1,5.1E-1,-2.7702197E-2,2.5637425E-3,-2.68E0,-4.5756087E-2,4.5E0,2.78E1,3.87E1,-6.5E-1,-3.322445E-1,9.31E1,4.31E1,1.3675253E-2,3.571433E-2,2.84E1,2.13E0,-2.02E0,-0E0,-3.1040655E-2,1.1154081E-2,-1.8428355E-2,-8.417315E-3,-3.4302715E-2,-2.845929E-2,-4.2204108E-2,-5.634078E-3,-3.0871818E-2,-0E0,-4.5573357E-2,-1.4116041E-2,1.0285532E-2,-4.501756E-2,-1.455777E-2,-1.8046089E-2,5.9666517E-3,-3.0129015E-2,2.0135056E-2,4.9786877E-2,1.7943164E-2],"split_indices":[4,14,0,0,0,0,0,18,12,12,18,4,17,9,3,17,16,14,17,0,0,19,0,3,5,5,19,18,0,5,0,0,6,19,19,0,0,0,0,0,0,0,0,0,0,0,0,0,0,0,0,0,0,0,0,0,0],"split_type":[0,0,0,0,0,0,0,0,0,0,0,0,0,0,0,0,0,0,0,0,0,0,0,0,0,0,0,0,0,0,0,0,0,0,0,0,0,0,0,0,0,0,0,0,0,0,0,0,0,0,0,0,0,0,0,0,0],"sum_hessian":[1.8436311E3,1.8275223E3,1.6108822E1,1.4790995E3,3.4842276E2,7.2780666E0,8.830755E0,1.13358444E2,1.3657411E3,1.854225E2,1.6300026E2,1.1050489E1,1.0230796E2,1.1250999E3,2.4064122E2,1.2657675E2,5.8845757E1,6.777952E1,9.522075E1,5.829933E0,5.220556E0,1.6491894E1,8.581606E1,9.765961E2,1.4850372E2,1.6599982E2,7.464141E1,2.3614244E1,1.0296251E2,5.3603886E1,5.24187E0,5.3143783E0,6.2465137E1,2.2495703E1,7.272505E1,5.9100327E0,1.0581861E1,1.2832189E1,9.637639E2,2.0349289E1,1.2815443E2,9.0651085E1,7.534873E1,3.423053E1,4.0410877E1,8.830849E0,1.4783395E1,4.0166466E1,6.2796043E1,3.974348E1,1.3860405E1,3.603772E1,2.6427418E1,1.0348834E1,1.2146869E1,2.5715221E1,4.700983E1],"tree_param":{"num_deleted":"0","num_feature":"24","num_nodes":"57","size_leaf_vector":"1"}},{"base_weights":[-3.0611882E-2,1.3377753E-1,-5.169983E-2,3.5868642E-1,-2.6580134E-1,5.01942E-1,-6.0729647E-1,2.3261254E-1,-5.87237E-1,6.430138E-1,-5.0776046E-2,-3.0363658E-3,-5.0354294E-2,4.428569E-1,-2.8003404E-1,-3.0130404E-1,-4.8665732E-2,7.7070624E-1,-5.0358355E-2,5.6993407E-1,-4.5586508E-2,-0E0,-4.4988073E-2,8.469956E-3,-3.781854E-2,6.707689E-2,-4.8063654E-2,5.6098953E-2,-4.5090087E-2,2.249433E-2,-1.5951347E-2],"categories":[],"categories_nodes":[],"categories_segments":[],"categories_sizes":[],"default_left":[0,0,0,0,0,0,0,0,0,0,0,0,0,0,0,0,0,0,0,0,0,0,0,0,0,0,0,0,0,0,0],"id":12,"left_children":[1,3,-1,5,7,9,11,13,15,17,-1,-1,-1,19,21,23,-1,25,-1,27,-1,29,-1,-1,-1,-1,-1,-1,-1,-1,-1],"loss_changes":[1.918623E2,1.345165E2,0E0,1.3294574E2,8.6626755E1,1.3451366E2,1.3275185E0,2.3078281E1,1.4316025E0,1.2163403E2,0E0,0E0,0E0,1.9957623E1,4.893367E0,2.034699E0,0E0,6.3727356E1,0E0,2.0793285E1,0E0,1.9179683E0,0E0,0E0,0E0,0E0,0E0,0E0,0E0,0E0,0E0],"parents":[2147483647,0,0,1,1,3,3,4,4,5,5,6,6,7,7,8,8,9,9,13,13,14,14,15,15,17,17,19,19,21,21],"right_children":[2,4,-1,6,8,10,12,14,16,18,-1,-1,-1,20,22,24,-1,26,-1,28,-1,30,-1,-1,-1,-1,-1,-1,-1,-1,-1],"split_conditions":[5.061584E-3,4.09E1,-5.169983E-2,3.849E1,1.2097462E1,2.823267E-4,3.852E1,4.87E1,4.17E1,1.658783E-2,-5.0776046E-2,-3.0363658E-3,-5.0354294E-2,3.852E1,5.29E1,3.628E1,-4.8665732E-2,5.061584E-3,-5.0358355E-2,2.823267E-4,-4.5586508E-2,9.66E0,-4.4988073E-2,8.469956E-3,-3.781854E-2,6.707689E-2,-4.8063654E-2,5.6098953E-2,-4.5090087E-2,2.249433E-2,-1.5951347E-2],"split_indices":[12,5,0,2,6,16,2,5,5,10,0,0,0,2,5,2,0,11,0,16,0,22,0,0,0,0,0,0,0,0,0],"split_type":[0,0,0,0,0,0,0,0,0,0,0,0,0,0,0,0,0,0,0,0,0,0,0,0,0,0,0,0,0,0,0],"sum_hessian":[1.8914963E3,1.4934077E3,3.9808856E2,9.561365E2,5.3727124E2,8.3355164E2,1.22584854E2,2.1044272E2,3.2682852E2,7.423339E2,9.121768E1,5.246555E0,1.17338295E2,1.4979773E2,6.064499E1,2.499745E1,3.018311E2,6.7538727E2,6.694668E1,1.3394206E2,1.5855668E1,3.1260971E1,2.9384018E1,7.0576243E0,1.7939825E1,6.443565E2,3.1030762E1,1.2078769E2,1.3154377E1,1.2642143E1,1.8618826E1],"tree_param":{"num_deleted":"0","num_feature":"24","num_nodes":"31","size_leaf_vector":"1"}},{"base_weights":[3.4379095E-1,4.3030053E-1,-5.212972E-2,-5.107046E-2,5.1576144E-1,1.0334117E0,3.0260983E-1,1.1819658E0,1.7946787E-1,3.8653806E-2,8.171695E-1,1.2660056E0,-4.6634663E-2,1.0695074E0,-5.1481053E-2,-1.3447168E-1,1.0002711E0,1.1457067E0,-5.1285695E-2,6.14071E-2,1.1342778E-1,3.997661E-2,1.10017315E-1,-3.3342548E-2,-2.5969178E-3,-4.39073E-2,1.1094805E-1,9.939124E-2,-4.5891866E-2],"categories":[],"categories_nodes":[],"categories_segments":[],"categories_sizes":[],"default_left":[0,0,0,0,0,0,0,0,0,0,0,0,0,0,0,0,0,0,0,0,0,0,0,0,0,0,0,0,0],"id":13,"left_children":[1,3,-1,-1,5,7,9,11,13,15,17,19,-1,21,-1,23,25,27,-1,-1,-1,-1,-1,-1,-1,-1,-1,-1,-1],"loss_changes":[1.7473965E2,1.7072827E2,0E0,0E0,1.8972589E2,6.3055725E1,1.6622493E2,6.475183E1,5.7248947E1,1.3570094E2,2.0019208E2,2.8658447E1,0E0,4.943554E0,0E0,1.9700489E1,7.587868E1,5.772284E1,0E0,0E0,0E0,0E0,0E0,0E0,0E0,0E0,0E0,0E0,0E0],"parents":[2147483647,0,0,1,1,4,4,5,5,6,6,7,7,8,8,9,9,10,10,11,11,13,13,15,15,16,16,17,17],"right_children":[2,4,-1,-1,6,8,10,12,14,16,18,20,-1,22,-1,24,26,28,-1,-1,-1,-1,-1,-1,-1,-1,-1,-1,-1],"split_conditions":[1.658783E-2,9E1,-5.212972E-2,-5.107046E-2,9.4E1,3.363163E-3,1E0,5.061584E-3,3.363163E-3,3.852E1,3.363163E-3,-2.21E0,-4.6634663E-2,-7.4E-1,-5.1481053E-2,-2.0526989E0,-2.74E0,5.061584E-3,-5.1285695E-2,6.14071E-2,1.1342778E-1,3.997661E-2,1.10017315E-1,-3.3342548E-2,-2.5969178E-3,-4.39073E-2,1.1094805E-1,9.939124E-2,-4.5891866E-2],"split_indices":[10,0,0,0,0,9,8,11,8,2,9,7,0,7,0,7,7,11,0,0,0,0,0,0,0,0,0,0,0],"split_type":[0,0,0,0,0,0,0,0,0,0,0,0,0,0,0,0,0,0,0,0,0,0,0,0,0,0,0,0,0],"sum_hessian":[2.0235841E3,1.8628408E3,1.6074332E2,1.3695946E2,1.7258813E3,5.012904E2,1.224591E3,4.262172E2,7.507322E1,8.108442E2,4.1374677E2,4.0741132E2,1.8805874E1,3.6026447E1,3.904677E1,6.879643E2,1.2287989E2,3.381009E2,7.564588E1,9.771675E1,3.0969455E2,1.430224E1,2.1724207E1,1.8059727E2,5.07367E2,2.4259777E1,9.862011E1,3.2065994E2,1.7440956E1],"tree_param":{"num_deleted":"0","num_feature":"24","num_nodes":"29","size_leaf_vector":"1"}},{"base_weights":[-1.473143E-1,1.3613008E0,-3.011172E-1,1.1083598E-1,5.1184848E-2,-4.7061822E-1,4.7277716E-1,-5.10164E-2,1.2102541E-1,-3.3160952E-1,1.3161252E0,-2.8687686E-1,1.1070951E0,-5.049204E-2,3.7368208E-1,1.3973991E0,-4.0181234E-2,-1.0256287E-1,-5.732584E-1,1.2286229E0,-3.9634023E-2,-9.889899E-2,9.0647094E-2,1.17563605E-1,8.7752163E-1,-2.9164206E-2,3.4263667E-2,-1.2909257E-2,-4.7422715E-2,1.0758832E-1,-3.964261E-3,6.0556278E-2,-2.833674E-2,8.676557E-2,1.1262089E-2],"categories":[],"categories_nodes":[],"categories_segments":[],"categories_sizes":[],"default_left":[0,0,0,0,0,0,0,0,0,0,0,0,0,0,0,0,0,0,0,0,0,0,0,0,0,0,0,0,0,0,0,0,0,0,0],"id":14,"left_children":[1,3,5,-1,-1,7,9,-1,11,13,15,17,19,-1,21,23,-1,25,27,29,-1,31,-1,-1,33,-1,-1,-1,-1,-1,-1,-1,-1,-1,-1],"loss_changes":[4.3295123E2,1.0701599E0,2.224859E2,0E0,0E0,1.3771365E2,2.0766013E2,0E0,1.2422168E2,3.359409E1,2.3376831E1,1.1225142E1,1.8732758E1,0E0,1.7502901E1,2.740326E0,0E0,1.9019407E1,3.095951E-1,1.3057869E1,0E0,6.9189997E0,0E0,0E0,2.7144794E0,0E0,0E0,0E0,0E0,0E0,0E0,0E0,0E0,0E0,0E0],"parents":[2147483647,0,0,1,1,2,2,5,5,6,6,8,8,9,9,10,10,11,11,12,12,14,14,15,15,17,17,18,18,19,19,21,21,24,24],"right_children":[2,4,6,-1,-1,8,10,-1,12,14,16,18,20,-1,22,24,-1,26,28,30,-1,32,-1,-1,34,-1,-1,-1,-1,-1,-1,-1,-1,-1,-1],"split_conditions":[9E1,3.89E1,3.363163E-3,1.1083598E-1,5.1184848E-2,1.4544666E-2,3.363163E-3,-5.10164E-2,1.3484751E-2,2.5179905E-1,1.658783E-2,1.12E1,5.061584E-3,-5.049204E-2,8.698676E-2,9.361548E-1,-4.0181234E-2,1.2289354E1,9.11E1,3.829E1,-3.9634023E-2,9.633168E-1,9.0647094E-2,1.17563605E-1,3.821E1,-2.9164206E-2,3.4263667E-2,-1.2909257E-2,-4.7422715E-2,1.0758832E-1,-3.964261E-3,6.0556278E-2,-2.833674E-2,8.676557E-2,1.1262089E-2],"split_indices":[0,2,9,0,0,12,8,0,14,12,10,3,11,0,14,14,0,6,0,2,0,9,0,0,2,0,0,0,0,0,0,0,0,0,0],"split_type":[0,0,0,0,0,0,0,0,0,0,0,0,0,0,0,0,0,0,0,0,0,0,0,0,0,0,0,0,0,0,0,0,0,0,0],"sum_hessian":[1.8631537E3,1.7110449E2,1.6920492E3,1.6382492E2,7.279574E0,1.3888368E3,3.0321234E2,1.083293E3,3.0554385E2,1.5547475E2,1.477376E2,2.1667317E2,8.887068E1,1.09536896E2,4.593785E1,1.4190724E2,5.830354E0,1.3370557E2,8.29676E1,8.310552E1,5.7651587E0,2.887713E1,1.706072E1,1.2170101E2,2.0206226E1,9.0216774E1,4.3488796E1,5.0793495E0,7.788825E1,7.632166E1,6.7838564E0,5.6878824E0,2.3189247E1,1.4902741E1,5.303486E0],"tree_param":{"num_deleted":"0","num_feature":"24","num_nodes":"35","size_leaf_vector":"1"}},{"base_weights":[-2.1424691E-1,-4.270606E-1,1.3219418E-1,-5.673914E-1,1.1957028E-1,-6.2386703E-1,-1.9262451E-1,-6.3468456E-1,9.509185E-2,1.1394734E-1,-6.2736064E-1,-0E0,-5.101157E-2,-5.1111173E-2,-1.7036417E-2],"categories":[],"categories_nodes":[],"categories_segments":[],"categories_sizes":[],"default_left":[0,0,0,0,0,0,0,0,0,0,0,0,0,0,0],"id":15,"left_children":[1,3,-1,5,-1,7,9,11,-1,-1,13,-1,-1,-1,-1],"loss_changes":[7.2903564E2,4.451848E2,0E0,3.2090576E1,0E0,2.7115845E1,1.4454474E2,2.5488281E0,0E0,0E0,3.1438446E-1,0E0,0E0,0E0,0E0],"parents":[2147483647,0,0,1,1,3,3,5,5,6,6,7,7,10,10],"right_children":[2,4,-1,6,-1,8,10,12,-1,-1,14,-1,-1,-1,-1],"split_conditions":[1.658783E-2,5.061584E-3,1.3219418E-1,3.856E1,1.1957028E-1,1.878E2,-2.951942E0,8.624414E1,9.509185E-2,1.1394734E-1,1.8088316E0,-0E0,-5.101157E-2,-5.1111173E-2,-1.7036417E-2],"split_indices":[10,11,0,21,0,1,7,0,0,0,4,0,0,0,0],"split_type":[0,0,0,0,0,0,0,0,0,0,0,0,0,0,0],"sum_hessian":[1.8319493E3,1.6456514E3,1.8629802E2,1.5347871E3,1.1086417E2,1.3322289E3,2.0255821E2,1.3254585E3,6.7704096E0,4.205043E1,1.6050778E2,6.022613E0,1.3194359E3,1.5466832E2,5.8394647E0],"tree_param":{"num_deleted":"0","num_feature":"24","num_nodes":"15","size_leaf_vector":"1"}},{"base_weights":[-1.18209515E-2,-5.1059768E-2,2.5702327E-1,5.864607E-1,-4.9766812E-2,7.334088E-1,-4.958787E-2,8.739037E-1,-5.0182402E-2,9.9047333E-1,-4.9267862E-2,8.386758E-2,-4.6408623E-2],"categories":[],"categories_nodes":[],"categories_segments":[],"categories_sizes":[],"default_left":[0,0,0,0,0,0,0,0,0,0,0,0,0],"id":16,"left_children":[1,-1,3,5,-1,7,-1,9,-1,11,-1,-1,-1],"loss_changes":[3.1646014E2,0E0,3.811002E2,1.70336E2,0E0,1.6413174E2,0E0,1.3557721E2,0E0,6.643347E1,0E0,0E0,0E0],"parents":[2147483647,0,0,2,2,3,3,5,5,7,7,9,9],"right_children":[2,-1,4,6,-1,8,-1,10,-1,12,-1,-1,-1],"split_conditions":[9.4E1,-5.1059768E-2,3.363163E-3,3.852E1,-4.9766812E-2,2.823267E-4,-4.958787E-2,1.658783E-2,-5.0182402E-2,5.061584E-3,-4.9267862E-2,8.386758E-2,-4.6408623E-2],"split_indices":[0,0,8,2,0,16,0,10,0,11,0,0,0],"split_type":[0,0,0,0,0,0,0,0,0,0,0,0,0],"sum_hessian":[1.8754532E3,5.629033E2,1.3125499E3,9.5537354E2,3.5717645E2,8.5237683E2,1.0299666E2,7.732897E2,7.90872E1,7.1782556E2,5.5464092E1,6.9298096E2,2.4844597E1],"tree_param":{"num_deleted":"0","num_feature":"24","num_nodes":"13","size_leaf_vector":"1"}},{"base_weights":[3.3301175E-1,4.0864387E-1,-5.1067337E-2,-5.004273E-2,4.812049E-1,9.6768963E-1,2.8560534E-1,1.0370471E0,-4.6408094E-2,3.6062837E-2,7.7233416E-1,1.2185727E0,4.7708905E-1,-1.269399E-1,1.1662226E0,1.0624962E0,-5.0268546E-2,1.06359795E-1,3.5249665E-2,-4.9403243E-2,7.811239E-2,-3.028453E-2,6.853284E-2,1.0113385E-1,5.2225053E-2,9.036839E-2,-4.3738537E-2],"categories":[],"categories_nodes":[],"categories_segments":[],"categories_sizes":[],"default_left":[0,0,0,0,0,0,0,0,0,0,0,0,0,0,0,0,0,0,0,0,0,0,0,0,0,0,0],"id":17,"left_children":[1,3,-1,-1,5,7,9,11,-1,13,15,17,19,21,23,25,-1,-1,-1,-1,-1,-1,-1,-1,-1,-1,-1],"loss_changes":[1.4873245E2,1.4114041E2,0E0,0E0,1.6607205E2,5.4907867E1,1.5193701E2,4.7511353E1,0E0,1.5352452E2,1.7357304E2,2.9817932E1,6.694171E1,1.8024887E2,3.470398E0,3.9137604E1,0E0,0E0,0E0,0E0,0E0,0E0,0E0,0E0,0E0,0E0,0E0],"parents":[2147483647,0,0,1,1,4,4,5,5,6,6,7,7,9,9,10,10,11,11,12,12,13,13,14,14,15,15],"right_children":[2,4,-1,-1,6,8,10,12,-1,14,16,18,20,22,24,26,-1,-1,-1,-1,-1,-1,-1,-1,-1,-1,-1],"split_conditions":[1.658783E-2,9E1,-5.1067337E-2,-5.004273E-2,9.4E1,5.061584E-3,1E0,5.061584E-3,-4.6408094E-2,8.2253724E-1,3.363163E-3,3.363163E-3,-2.0526989E0,9.44732E-1,5.061584E-3,5.061584E-3,-5.0268546E-2,1.06359795E-1,3.5249665E-2,-4.9403243E-2,7.811239E-2,-3.028453E-2,6.853284E-2,1.0113385E-1,5.2225053E-2,9.036839E-2,-4.3738537E-2],"split_indices":[10,0,0,0,0,11,8,12,0,16,9,9,7,12,12,11,0,0,0,0,0,0,0,0,0,0,0],"split_type":[0,0,0,0,0,0,0,0,0,0,0,0,0,0,0,0,0,0,0,0,0,0,0,0,0,0,0],"sum_hessian":[2.0186327E3,1.8739034E3,1.447292E2,1.2183805E2,1.7520654E3,5.0029755E2,1.251768E3,4.7949963E2,2.07979E1,8.2898206E2,4.2278586E2,3.6037448E2,1.1912514E2,7.254208E2,1.0356124E2,3.5071036E2,7.207552E1,3.1413434E2,4.624014E1,3.7017414E1,8.210773E1,5.786284E2,1.4679237E2,8.463618E1,1.8925066E1,3.372785E2,1.3431837E1],"tree_param":{"num_deleted":"0","num_feature":"24","num_nodes":"27","size_leaf_vector":"1"}},{"base_weights":[-1.4176789E-1,-3.0295527E-1,5.670247E-1,-4.7079623E-1,2.6266524E-1,-7.02389E-2,1.2253321E0,-4.989961E-1,-2.4377677E-1,1.2021326E0,-3.075151E-1,8.752248E-1,-3.5163456E-1,1.0210446E-1,8.4759825E-1,-5.182363E-1,-2.2556978E-1,8.227425E-1,-3.9901707E-1,1.2933035E0,-4.0956378E-2,9.888029E-1,-4.6239543E-1,9.221007E-2,-3.8970973E-2,-4.7037092E-1,6.705227E-2,8.3412625E-2,8.170442E-3,-4.8042643E-1,-5.8587855E-1,7.0580535E-2,-4.5035315E-1,2.9934999E-2,8.1609905E-2,-4.869601E-1,-1.6814896E-1,1.08158894E-1,6.857607E-3,9.228977E-2,2.2190869E-2,-4.9136695E-1,-2.4449891E-1,-4.3342438E-2,1.5313396E-1,9.185735E-2,-3.9357163E-2,-4.2167153E-2,2.9889068E-2,-4.8403118E-2,-3.6090374E-2,-4.1028604E-2,-4.386437E-3,-4.1674305E-2,-1.3520982E-2,-2.2138137E-2,2.55449E-2,-2.4907667E-2,-4.1764922E-2,-2.9038442E-2,1.0207544E-2,2.6535308E-2,-1.1209837E-3],"categories":[],"categories_nodes":[],"categories_segments":[],"categories_sizes":[],"default_left":[0,0,0,0,0,0,0,0,0,0,0,0,0,0,0,0,0,0,0,0,0,0,0,0,0,0,0,0,0,0,0,0,0,0,0,0,0,0,0,0,0,0,0,0,0,0,0,0,0,0,0,0,0,0,0,0,0,0,0,0,0,0,0],"id":18,"left_children":[1,3,5,7,9,11,13,15,17,19,21,23,25,-1,27,29,31,33,35,37,-1,39,41,-1,-1,43,45,-1,-1,47,49,-1,51,-1,-1,53,55,-1,-1,-1,-1,57,59,-1,61,-1,-1,-1,-1,-1,-1,-1,-1,-1,-1,-1,-1,-1,-1,-1,-1,-1,-1],"loss_changes":[2.081419E2,1.4116281E2,1.4203384E2,6.928879E0,1.8306802E2,4.6236366E1,9.419098E-1,4.948715E0,2.2003387E1,2.1387482E1,4.3236336E1,1.607687E1,6.8478165E0,0E0,3.1229782E0,1.6809998E0,1.802291E1,5.0099564E-1,2.0224342E0,8.116791E0,0E0,1.7844982E0,8.063202E-1,0E0,0E0,4.9348125E0,1.9441658E1,0E0,0E0,2.5006104E1,1.2578583E-1,0E0,1.2665777E0,0E0,0E0,5.443287E-1,1.9747906E0,0E0,0E0,0E0,0E0,4.239807E-1,1.3147483E0,0E0,4.476081E-1,0E0,0E0,0E0,0E0,0E0,0E0,0E0,0E0,0E0,0E0,0E0,0E0,0E0,0E0,0E0,0E0,0E0,0E0],"parents":[2147483647,0,0,1,1,2,2,3,3,4,4,5,5,6,6,7,7,8,8,9,9,10,10,11,11,12,12,14,14,15,15,16,16,17,17,18,18,19,19,21,21,22,22,25,25,26,26,29,29,30,30,32,32,35,35,36,36,41,41,42,42,44,44],"right_children":[2,4,6,8,10,12,14,16,18,20,22,24,26,-1,28,30,32,34,36,38,-1,40,42,-1,-1,44,46,-1,-1,48,50,-1,52,-1,-1,54,56,-1,-1,-1,-1,58,60,-1,62,-1,-1,-1,-1,-1,-1,-1,-1,-1,-1,-1,-1,-1,-1,-1,-1,-1,-1],"split_conditions":[3.363163E-3,1.2277611E-2,3.363163E-3,2.823267E-4,-2E0,9.840835E-1,9.321183E-1,1.712E0,9.6646756E-1,1.658783E-2,8.9455223E-1,1.658783E-2,5.061584E-3,1.0210446E-1,7.2E-1,1.347E2,1.578E2,1.2967411E0,2.52E0,3.853E1,-4.0956378E-2,1.487E2,4.87E1,9.221007E-2,-3.8970973E-2,1.679E0,-1.68E0,8.3412625E-2,8.170442E-3,1.42E0,1.641E0,7.0580535E-2,1.936E0,2.9934999E-2,8.1609905E-2,3.851E1,1.97E0,1.08158894E-1,6.857607E-3,9.228977E-2,2.2190869E-2,1.06E2,1.55E0,-4.3342438E-2,3.727E1,9.185735E-2,-3.9357163E-2,-4.2167153E-2,2.9889068E-2,-4.8403118E-2,-3.6090374E-2,-4.1028604E-2,-4.386437E-3,-4.1674305E-2,-1.3520982E-2,-2.2138137E-2,2.55449E-2,-2.4907667E-2,-4.1764922E-2,-2.9038442E-2,1.0207544E-2,2.6535308E-2,-1.1209837E-3],"split_indices":[9,12,8,16,7,9,14,4,16,10,12,10,12,0,18,1,1,17,17,2,0,1,5,0,0,4,7,0,0,4,4,0,4,0,0,21,18,0,0,0,0,1,4,0,2,0,0,0,0,0,0,0,0,0,0,0,0,0,0,0,0,0,0],"split_type":[0,0,0,0,0,0,0,0,0,0,0,0,0,0,0,0,0,0,0,0,0,0,0,0,0,0,0,0,0,0,0,0,0,0,0,0,0,0,0,0,0,0,0,0,0,0,0,0,0,0,0,0,0,0,0,0,0,0,0,0,0,0,0],"sum_hessian":[1.8187742E3,1.4828414E3,3.3593268E2,1.1441199E3,3.3872165E2,1.711439E2,1.6478876E2,1.0149289E3,1.2919092E2,1.2750293E2,2.1121873E2,3.8283447E1,1.3286046E2,1.4135149E2,2.3437279E1,9.459268E2,6.900206E1,1.5350306E1,1.1384061E2,1.2157947E2,5.9234614E0,2.1473799E1,1.8974493E2,3.2181793E1,6.1016536E0,1.039207E2,2.8939754E1,1.7783587E1,5.6536927E0,6.1740594E2,3.285209E2,1.0674019E1,5.8328037E1,6.4823985E0,8.867907E0,8.029213E1,3.3548477E1,1.15537125E2,6.0423427E0,1.6335228E1,5.1385713E0,1.646003E2,2.5144632E1,9.384991E1,1.0070798E1,9.50749E0,1.9432264E1,5.8629736E2,3.1108583E1,2.8109003E2,4.7430866E1,4.9329086E1,8.998953E0,7.082429E1,9.467842E0,2.8470749E1,5.077728E0,2.7835602E1,1.367647E2,1.9711193E1,5.433439E0,5.023026E0,5.0477715E0],"tree_param":{"num_deleted":"0","num_feature":"24","num_nodes":"63","size_leaf_vector":"1"}},{"base_weights":[-2.1406959E-1,-4.2057797E-1,1.17518306E-1,-4.781721E-1,-6.6694625E-2,-4.903308E-1,9.340304E-2,-4.6467876E-1,1.0379233E-1,-4.5936514E-2,-4.9354354E-1,-4.7554338E-1,-3.2992281E-3,1.4310805E-2,-2.4328139E-2,-3.8766107E-1,-5.0113106E-1,-4.887172E-3,-4.8734814E-1,-0E0,-3.703158E-2,-4.0220276E-2,-4.699874E-3,-6.1588828E-3,-3.9963923E-2],"categories":[],"categories_nodes":[],"categories_segments":[],"categories_sizes":[],"default_left":[0,0,0,0,0,0,0,0,0,0,0,0,0,0,0,0,0,0,0,0,0,0,0,0,0],"id":19,"left_children":[1,3,-1,5,7,9,-1,11,-1,13,15,17,-1,-1,-1,19,21,-1,23,-1,-1,-1,-1,-1,-1],"loss_changes":[6.2418164E2,3.238629E1,0E0,2.8159424E1,1.2352867E2,1.7539978E0,0E0,6.2748337E-1,0E0,8.230033E-1,5.305786E-1,6.286087E-1,0E0,0E0,0E0,2.954646E0,6.89209E-1,0E0,5.983696E-1,0E0,0E0,0E0,0E0,0E0,0E0],"parents":[2147483647,0,0,1,1,3,3,4,4,5,5,7,7,9,9,10,10,11,11,15,15,16,16,18,18],"right_children":[2,4,-1,6,8,10,-1,12,-1,14,16,18,-1,-1,-1,20,22,-1,24,-1,-1,-1,-1,-1,-1],"split_conditions":[1.658783E-2,3.851E1,1.17518306E-1,1.878E2,3.8187176E-1,8.73E1,9.340304E-2,1.819E0,1.0379233E-1,1.59E0,4.3E0,8.8421394E1,-3.2992281E-3,1.4310805E-2,-2.4328139E-2,-1.79E0,1.823E2,-4.887172E-3,3.3E0,-0E0,-3.703158E-2,-4.0220276E-2,-4.699874E-3,-6.1588828E-3,-3.9963923E-2],"split_indices":[10,21,0,1,14,0,0,4,0,17,6,0,0,0,0,7,1,0,6,0,0,0,0,0,0],"split_type":[0,0,0,0,0,0,0,0,0,0,0,0,0,0,0,0,0,0,0,0,0,0,0,0,0],"sum_hessian":[1.7926158E3,1.597863E3,1.947528E2,1.3730294E3,2.2483357E2,1.364186E3,8.843382E0,1.7498854E2,4.984502E1,1.0626567E1,1.3535594E3,1.6974028E2,5.248271E0,5.3051763E0,5.3213906E0,9.8378876E1,1.2551807E3,5.6610866E0,1.640792E2,1.6038742E1,8.234013E1,1.2497147E3,5.4659386E0,5.7641034E0,1.583151E2],"tree_param":{"num_deleted":"0","num_feature":"24","num_nodes":"25","size_leaf_vector":"1"}},{"base_weights":[-2.2321204E-2,-5.03139E-2,2.3426373E-1,5.2909845E-1,-4.904356E-2,7.713917E-1,-5.347577E-2,9.350832E-1,-4.868074E-1,1.082424E0,-4.9289025E-2,-3.8814E-3,-5.6660575E-1,9.708439E-2,-4.825305E-2,-1.2771553E-2,9.676544E-3,-2.7459443E-2,-4.8637204E-2],"categories":[],"categories_nodes":[],"categories_segments":[],"categories_sizes":[],"default_left":[0,0,0,0,0,0,0,0,0,0,0,0,0,0,0,0,0,0,0],"id":20,"left_children":[1,-1,3,5,-1,7,-1,9,11,13,-1,15,17,-1,-1,-1,-1,-1,-1],"loss_changes":[2.878398E2,0E0,3.2492908E2,2.8069397E2,0E0,1.6624048E2,0E0,1.637464E2,3.418764E0,1.4505359E2,0E0,3.374164E-1,1.3582611E-1,0E0,0E0,0E0,0E0,0E0,0E0],"parents":[2147483647,0,0,2,2,3,3,5,5,7,7,8,8,9,9,11,11,12,12],"right_children":[2,-1,4,6,-1,8,-1,10,12,14,-1,16,18,-1,-1,-1,-1,-1,-1],"split_conditions":[9.4E1,-5.03139E-2,3.363163E-3,5.061584E-3,-4.904356E-2,3.8493896E1,-5.347577E-2,2.823267E-4,3.858E1,1.658783E-2,-4.9289025E-2,-2.6E-1,3.872E1,9.708439E-2,-4.825305E-2,-1.2771553E-2,9.676544E-3,-2.7459443E-2,-4.8637204E-2],"split_indices":[0,0,8,12,0,21,0,16,21,10,0,18,21,0,0,0,0,0,0],"split_type":[0,0,0,0,0,0,0,0,0,0,0,0,0,0,0,0,0,0,0],"sum_hessian":[1.8456538E3,5.4832635E2,1.2973274E3,9.631137E2,3.342137E2,8.016951E2,1.6141856E2,7.099539E2,9.1741234E1,6.48959E2,6.0994896E1,1.3765739E1,7.7975494E1,6.02672E2,4.628702E1,7.0073853E0,6.758354E0,1.5495187E1,6.2480305E1],"tree_param":{"num_deleted":"0","num_feature":"24","num_nodes":"19","size_leaf_vector":"1"}},{"base_weights":[3.1476685E-1,3.8771975E-1,-5.0150115E-2,-4.961694E-2,4.5633852E-1,8.839981E-1,2.736855E-1,1.007152E0,1.4464444E-1,4.418624E-2,7.028504E-1,1.0725546E0,-4.533709E-2,9.041204E-1,-5.0526425E-2,-1.2919061E-1,9.4459933E-1,9.680086E-1,-4.9424395E-2,5.0137248E-2,9.4914205E-2,-3.962227E-2,9.634131E-2,-2.5308024E-2,8.856991E-2,-3.888462E-2,1.000681E-1,8.352959E-2,-4.476636E-2],"categories":[],"categories_nodes":[],"categories_segments":[],"categories_sizes":[],"default_left":[0,0,0,0,0,0,0,0,0,0,0,0,0,0,0,0,0,0,0,0,0,0,0,0,0,0,0,0,0],"id":21,"left_children":[1,3,-1,-1,5,7,9,11,13,15,17,19,-1,21,-1,23,25,27,-1,-1,-1,-1,-1,-1,-1,-1,-1,-1,-1],"loss_changes":[1.3919759E2,1.3025421E2,0E0,0E0,1.3671564E2,4.7272095E1,1.2141291E2,4.7358124E1,4.63984E1,1.2641518E2,1.5155078E2,2.0298523E1,0E0,1.7819855E1,0E0,1.5711678E2,5.8435646E1,4.273871E1,0E0,0E0,0E0,0E0,0E0,0E0,0E0,0E0,0E0,0E0,0E0],"parents":[2147483647,0,0,1,1,4,4,5,5,6,6,7,7,8,8,9,9,10,10,11,11,13,13,15,15,16,16,17,17],"right_children":[2,4,-1,-1,6,8,10,12,14,16,18,20,-1,22,-1,24,26,28,-1,-1,-1,-1,-1,-1,-1,-1,-1,-1,-1],"split_conditions":[1.658783E-2,9E1,-5.0150115E-2,-4.961694E-2,9.4E1,3.363163E-3,1E0,5.061584E-3,3.363163E-3,3.852E1,3.363163E-3,-2.42E0,-4.533709E-2,7.4112064E-1,-5.0526425E-2,8.7195414E-1,-2.74E0,5.061584E-3,-4.9424395E-2,5.0137248E-2,9.4914205E-2,-3.962227E-2,9.634131E-2,-2.5308024E-2,8.856991E-2,-3.888462E-2,1.000681E-1,8.352959E-2,-4.476636E-2],"split_indices":[10,0,0,0,0,9,8,11,8,2,9,7,0,9,0,16,7,11,0,0,0,0,0,0,0,0,0,0,0],"split_type":[0,0,0,0,0,0,0,0,0,0,0,0,0,0,0,0,0,0,0,0,0,0,0,0,0,0,0,0,0],"sum_hessian":[2.0205331E3,1.8763646E3,1.4416853E2,1.1855133E2,1.7578132E3,5.2385925E2,1.233954E3,4.4824606E2,7.561322E1,8.055392E2,4.284148E2,4.310039E2,1.7242151E1,3.8289368E1,3.7323853E1,6.7627277E2,1.2926645E2,3.5730383E2,7.1110954E1,9.020816E1,3.4079575E2,6.4133077E0,3.187606E1,5.8853595E2,8.773679E1,2.2464273E1,1.0680217E2,3.4098553E2,1.6318317E1],"tree_param":{"num_deleted":"0","num_feature":"24","num_nodes":"29","size_leaf_vector":"1"}},{"base_weights":[-1.3675423E-1,1.1747392E0,-2.868635E-1,9.857363E-2,-4.0894594E-2,-4.6200678E-1,4.6456277E-1,-4.9677074E-2,9.559084E-2,-3.1836185E-1,9.108125E-2,1.0944505E0,-5.6149495E-1,-4.914812E-2,3.5694483E-1,1.1879817E0,-3.9835148E-2,3.5975795E-2,-4.824089E-2,1.0058632E0,-4.168176E-2,9.94392E-2,2.453915E-3,8.9228876E-2,3.305934E-2],"categories":[],"categories_nodes":[],"categories_segments":[],"categories_sizes":[],"default_left":[0,0,0,0,0,0,0,0,0,0,0,0,0,0,0,0,0,0,0,0,0,0,0,0,0],"id":22,"left_children":[1,3,5,-1,-1,7,9,-1,11,13,-1,15,17,-1,19,21,-1,-1,-1,23,-1,-1,-1,-1,-1],"loss_changes":[3.4908105E2,1.8790268E1,2.0975983E2,0E0,0E0,1.147312E2,1.5973726E2,0E0,1.8972307E2,2.8453362E1,0E0,1.818312E1,7.764908E0,0E0,2.5657684E1,6.4993744E0,0E0,0E0,0E0,5.153675E-1,0E0,0E0,0E0,0E0,0E0],"parents":[2147483647,0,0,1,1,2,2,5,5,6,6,8,8,9,9,11,11,12,12,14,14,15,15,19,19],"right_children":[2,4,6,-1,-1,8,10,-1,12,14,-1,16,18,-1,20,22,-1,-1,-1,24,-1,-1,-1,-1,-1],"split_conditions":[9E1,1.658783E-2,3.363163E-3,9.857363E-2,-4.0894594E-2,8.1046216E-2,3.363163E-3,-4.9677074E-2,-2.0526989E0,2.5179905E-1,9.108125E-2,1.658783E-2,6.06715E-1,-4.914812E-2,-9.0048105E-1,3.888E1,-3.9835148E-2,3.5975795E-2,-4.824089E-2,-2.11E0,-4.168176E-2,9.94392E-2,2.453915E-3,8.9228876E-2,3.305934E-2],"split_indices":[0,10,9,0,0,12,8,0,7,12,0,10,12,0,7,21,0,0,0,7,0,0,0,0,0],"split_type":[0,0,0,0,0,0,0,0,0,0,0,0,0,0,0,0,0,0,0,0,0,0,0,0,0],"sum_hessian":[1.7704644E3,1.8057314E2,1.5898912E3,1.7518701E2,5.386121E0,1.290157E3,2.9973425E2,1.0042413E3,2.859157E2,1.3881752E2,1.6091673E2,1.1323749E2,1.7267822E2,9.6917725E1,4.18998E1,1.0749307E2,5.744417E0,5.943401E0,1.6673482E2,2.4163435E1,1.7736366E1,1.02262146E2,5.230924E0,1.8851015E1,5.3124194E0],"tree_param":{"num_deleted":"0","num_feature":"24","num_nodes":"25","size_leaf_vector":"1"}},{"base_weights":[-2.05973E-1,-4.0377998E-1,1.0562941E-1,-5.439479E-1,1.0805648E-1,-6.0806024E-1,-1.6259843E-1,-4.961353E-2,8.8268764E-2,5.2296206E-2,-4.3898848E-1,-4.3372062E-1,8.478469E-1,-4.776317E-2,-8.614553E-2,1.1099552E-2,-4.658015E-2,3.7641544E-2,9.772477E-2,7.191213E-2,-4.6029568E-2],"categories":[],"categories_nodes":[],"categories_segments":[],"categories_sizes":[],"default_left":[0,0,0,0,0,0,0,0,0,0,0,0,0,0,0,0,0,0,0,0,0],"id":23,"left_children":[1,3,-1,5,-1,7,9,-1,-1,11,13,15,17,-1,19,-1,-1,-1,-1,-1,-1],"loss_changes":[5.327479E2,3.8495984E2,0E0,3.5011993E1,0E0,2.6536957E1,1.26861515E1,0E0,0E0,4.686817E1,4.909256E0,6.6245584E0,5.123581E0,0E0,1.5684686E1,0E0,0E0,0E0,0E0,0E0,0E0],"parents":[2147483647,0,0,1,1,3,3,5,5,6,6,9,9,10,10,11,11,12,12,14,14],"right_children":[2,4,-1,6,-1,8,10,-1,-1,12,14,16,18,-1,20,-1,-1,-1,-1,-1,-1],"split_conditions":[1.658783E-2,5.061584E-3,1.0562941E-1,3.852E1,1.0805648E-1,1.878E2,1.07E1,-4.961353E-2,8.8268764E-2,1.2097462E1,3.66E1,6E0,2.32E1,-4.776317E-2,1.32E1,1.1099552E-2,-4.658015E-2,3.7641544E-2,9.772477E-2,7.191213E-2,-4.6029568E-2],"split_indices":[10,11,0,2,0,1,3,0,0,6,6,3,6,0,3,0,0,0,0,0,0],"split_type":[0,0,0,0,0,0,0,0,0,0,0,0,0,0,0,0,0,0,0,0,0],"sum_hessian":[1.7612902E3,1.5603726E3,2.0091765E2,1.4460518E3,1.1432078E2,1.2364943E3,2.0955754E2,1.2289308E3,7.563406E0,1.1796778E2,9.158977E1,7.341953E1,4.454824E1,6.195121E1,2.963856E1,1.4729312E1,5.8690224E1,2.4252483E1,2.0295757E1,9.214979E0,2.042358E1],"tree_param":{"num_deleted":"0","num_feature":"24","num_nodes":"21","size_leaf_vector":"1"}},{"base_weights":[-1.5765877E-2,-4.953138E-2,2.3044562E-1,5.1568747E-1,-4.8382096E-2,7.2830725E-1,-5.2835863E-2,8.8182724E-1,-4.8595075E-2,1.0158461E0,-4.850821E-2,8.6637646E-2,-4.695029E-2],"categories":[],"categories_nodes":[],"categories_segments":[],"categories_sizes":[],"default_left":[0,0,0,0,0,0,0,0,0,0,0,0,0],"id":24,"left_children":[1,-1,3,5,-1,7,-1,9,-1,11,-1,-1,-1],"loss_changes":[2.693664E2,0E0,3.0703125E2,2.4089923E2,0E0,1.6786069E2,0E0,1.4686743E2,0E0,7.3341064E1,0E0,0E0,0E0],"parents":[2147483647,0,0,2,2,3,3,5,5,7,7,9,9],"right_children":[2,-1,4,6,-1,8,-1,10,-1,12,-1,-1,-1],"split_conditions":[9.4E1,-4.953138E-2,3.363163E-3,5.061584E-3,-4.8382096E-2,3.852E1,-5.2835863E-2,2.823267E-4,-4.8595075E-2,5.061584E-3,-4.850821E-2,8.6637646E-2,-4.695029E-2],"split_indices":[0,0,8,12,0,2,0,16,0,11,0,0,0],"split_type":[0,0,0,0,0,0,0,0,0,0,0,0,0],"sum_hessian":[1.8094789E3,5.240837E2,1.2853953E3,9.588615E2,3.2653372E2,8.1275867E2,1.4610287E2,7.296346E2,8.3124084E1,6.6997705E2,5.965752E1,6.436919E2,2.6285122E1],"tree_param":{"num_deleted":"0","num_feature":"24","num_nodes":"13","size_leaf_vector":"1"}},{"base_weights":[2.9332697E-1,-4.888754E-2,3.5117227E-1,7.278346E-1,1.918098E-1,7.8430516E-1,-4.5869384E-2,-1.4165041E-2,5.8079076E-1,8.767074E-1,1.8288966E-1,-1.4658742E-1,8.513452E-1,7.962247E-1,-4.8616394E-2,9.646423E-1,4.0514526E-1,8.6711746E-1,-4.930519E-2,-3.255189E-1,7.2581387E-1,4.9033317E-1,7.661945E-2,8.670738E-1,-4.464964E-2,6.0166486E-2,8.0962345E-2,-4.4584636E-2,4.657129E-2,-3.6907963E-2,8.78129E-2,-4.9547195E-2,-1.7953467E-2,7.5728565E-2,-4.6187494E-2,5.5867434E-2,-2.8259473E-2,4.1807428E-2,8.182308E-2],"categories":[],"categories_nodes":[],"categories_segments":[],"categories_sizes":[],"default_left":[0,0,0,0,0,0,0,0,0,0,0,0,0,0,0,0,0,0,0,0,0,0,0,0,0,0,0,0,0,0,0,0,0,0,0,0,0,0,0],"id":25,"left_children":[1,-1,3,5,7,9,-1,11,13,15,17,19,21,23,-1,25,27,29,-1,31,33,35,-1,37,-1,-1,-1,-1,-1,-1,-1,-1,-1,-1,-1,-1,-1,-1,-1],"loss_changes":[1.06432495E2,0E0,1.1410306E2,4.2360596E1,1.0786653E2,2.9658722E1,0E0,1.0079907E2,1.2005873E2,1.8513062E1,4.1749508E1,1.1957816E2,3.3418274E0,3.8742035E1,0E0,2.3070984E0,1.3623028E1,1.3536299E1,0E0,1.842321E1,3.842124E1,5.78493E0,0E0,1.8923676E1,0E0,0E0,0E0,0E0,0E0,0E0,0E0,0E0,0E0,0E0,0E0,0E0,0E0,0E0,0E0],"parents":[2147483647,0,0,2,2,3,3,4,4,5,5,7,7,8,8,9,9,10,10,11,11,12,12,13,13,15,15,16,16,17,17,19,19,20,20,21,21,23,23],"right_children":[2,-1,4,6,8,10,-1,12,14,16,18,20,22,24,-1,26,28,30,-1,32,34,36,-1,38,-1,-1,-1,-1,-1,-1,-1,-1,-1,-1,-1,-1,-1,-1,-1],"split_conditions":[9E1,-4.888754E-2,9.4E1,5.061584E-3,9.66054E-1,3.363163E-3,-4.5869384E-2,1E0,3.363163E-3,1.3484751E-2,3.363163E-3,3.852E1,-2.0526989E0,5.061584E-3,-4.8616394E-2,-1.16E0,9.2226535E-1,7.4112064E-1,-4.930519E-2,-2.0526989E0,1.3484751E-2,3.824E1,7.661945E-2,-2.0526989E0,-4.464964E-2,6.0166486E-2,8.0962345E-2,-4.4584636E-2,4.657129E-2,-3.6907963E-2,8.78129E-2,-4.9547195E-2,-1.7953467E-2,7.5728565E-2,-4.6187494E-2,5.5867434E-2,-2.8259473E-2,4.1807428E-2,8.182308E-2],"split_indices":[0,0,0,11,8,9,0,16,9,14,8,2,7,11,0,7,14,9,0,7,14,21,0,7,0,0,0,0,0,0,0,0,0,0,0,0,0,0,0],"split_type":[0,0,0,0,0,0,0,0,0,0,0,0,0,0,0,0,0,0,0,0,0,0,0,0,0,0,0,0,0,0,0,0,0,0,0,0,0,0,0],"sum_hessian":[2.0282346E3,1.2075023E2,1.9074844E3,5.6495276E2,1.3425316E3,5.4224634E2,2.2706413E1,8.781853E2,4.6434628E2,4.6900275E2,7.3243614E1,7.6303424E2,1.1515107E2,3.9372482E2,7.062146E1,3.9343253E2,7.557022E1,3.9593822E1,3.364979E1,6.342353E2,1.2879892E2,2.8769035E1,8.6382034E1,3.748754E2,1.884945E1,7.748773E1,3.159448E2,1.0974732E1,6.459549E1,5.4405656E0,3.4153255E1,1.5963725E2,4.7459805E2,1.1068607E2,1.8112858E1,2.3570805E1,5.198231E0,1.1933545E2,2.5553993E2],"tree_param":{"num_deleted":"0","num_feature":"24","num_nodes":"39","size_leaf_vector":"1"}},{"base_weights":[-1.2729111E-1,1.0817904E0,-2.6945177E-1,3.803717E-2,1.0948261E0,-4.4261888E-1,4.2818916E-1,8.888116E-2,4.0070347E-2,-4.89557E-2,1.1427336E-1,-1.5945184E-1,8.091671E-1,1.0287299E0,-5.4742455E-1,7.164721E-1,-3.9350104E-1,2.94019E-1,9.671682E-1,1.115625E0,-3.9893012E-2,3.6188576E-2,-5.843026E-1,-1.5587808E-3,7.806547E-2,-6.5275855E-2,-5.334254E-1,-2.0831595E-1,7.371147E-2,1.034264E0,-4.0421594E-2,9.294609E-2,3.4351258E-3,-5.382722E-3,-4.8566572E-2,-2.9976353E-2,5.691416E-2,-4.776566E-2,-6.9031175E-3,-4.0548615E-2,3.5259034E-2,8.726113E-2,3.6224894E-2],"categories":[],"categories_nodes":[],"categories_segments":[],"categories_sizes":[],"default_left":[0,0,0,0,0,0,0,0,0,0,0,0,0,0,0,0,0,0,0,0,0,0,0,0,0,0,0,0,0,0,0,0,0,0,0,0,0,0,0,0,0,0,0],"id":26,"left_children":[1,3,5,-1,7,9,11,-1,-1,-1,13,15,17,19,21,23,25,27,29,31,-1,-1,33,-1,-1,35,37,39,-1,41,-1,-1,-1,-1,-1,-1,-1,-1,-1,-1,-1,-1,-1],"loss_changes":[2.979931E2,1.8939209E-1,1.8774796E2,0E0,3.8243103E-1,1.1758057E2,6.956398E1,0E0,0E0,0E0,1.7704527E2,2.5434408E1,1.4498199E1,1.7325928E1,6.689083E0,5.294488E0,4.263831E0,1.5229233E1,1.5048599E1,5.357025E0,0E0,0E0,1.6739006E0,0E0,0E0,7.8952093E0,1.6466141E0,5.5691776E0,0E0,3.3049011E0,0E0,0E0,0E0,0E0,0E0,0E0,0E0,0E0,0E0,0E0,0E0,0E0,0E0],"parents":[2147483647,0,0,1,1,2,2,4,4,5,5,6,6,10,10,11,11,12,12,13,13,14,14,15,15,16,16,17,17,18,18,19,19,22,22,25,25,26,26,27,27,29,29],"right_children":[2,4,6,-1,8,10,12,-1,-1,-1,14,16,18,20,22,24,26,28,30,32,-1,-1,34,-1,-1,36,38,40,-1,42,-1,-1,-1,-1,-1,-1,-1,-1,-1,-1,-1,-1,-1],"split_conditions":[9E1,-9.5E0,3.363163E-3,3.803717E-2,3.915E1,8.1046216E-2,3.96E1,8.888116E-2,4.0070347E-2,-4.89557E-2,-2E0,9.041587E-1,1.09E1,5.061584E-3,5.373202E-1,2.5179905E-1,-1.79E0,5.032832E1,5.061584E-3,3.868E1,-3.9893012E-2,3.6188576E-2,9.1E1,-1.5587808E-3,7.806547E-2,8.534967E-2,3.8E1,5.061584E-3,7.371147E-2,3.858E1,-4.0421594E-2,9.294609E-2,3.4351258E-3,-5.382722E-3,-4.8566572E-2,-2.9976353E-2,5.691416E-2,-4.776566E-2,-6.9031175E-3,-4.0548615E-2,3.5259034E-2,8.726113E-2,3.6224894E-2],"split_indices":[0,19,9,0,21,12,5,0,0,0,7,9,6,11,12,12,7,5,11,2,0,0,0,0,0,12,5,12,0,21,0,0,0,0,0,0,0,0,0,0,0,0,0],"split_type":[0,0,0,0,0,0,0,0,0,0,0,0,0,0,0,0,0,0,0,0,0,0,0,0,0,0,0,0,0,0,0,0,0,0,0,0,0,0,0,0,0,0,0],"sum_hessian":[1.7310627E3,1.808555E2,1.5502072E3,5.473897E0,1.753816E2,1.24272E3,3.0748724E2,1.6896542E2,6.416183E0,9.532633E2,2.894567E2,1.2097444E2,1.8651279E2,1.2136015E2,1.6809654E2,2.4586485E1,9.6387955E1,4.5231075E1,1.4128171E2,1.15395935E2,5.964216E0,5.089288E0,1.6300726E2,6.4665794E0,1.8119905E1,3.0107523E1,6.628043E1,2.5409552E1,1.9821526E1,1.3574619E2,5.5355344E0,1.10243385E2,5.1525536E0,7.6849723E0,1.5532228E2,2.2361565E1,7.7459593E0,5.6993996E1,9.286439E0,1.7945906E1,7.463645E0,1.2205605E2,1.3690126E1],"tree_param":{"num_deleted":"0","num_feature":"24","num_nodes":"43","size_leaf_vector":"1"}},{"base_weights":[-1.8991922E-1,-3.9085096E-1,9.6694484E-2,-5.3452677E-1,1.0023824E-1,-5.989093E-1,-1.615394E-1,-6.105546E-1,9.010145E-2,-3.3999202E-1,4.4244118E-2,5.8610598E-3,-4.9106468E-2,-4.3707332E-1,-4.318135E-2,2.7547377E-1,-1.0304586E-1,-3.8370807E-2,-0E0,-3.8370416E-2,8.1525445E-3,-2.2005418E-3,3.995519E-2,-2.1080961E-2,1.3621719E-2],"categories":[],"categories_nodes":[],"categories_segments":[],"categories_sizes":[],"default_left":[0,0,0,0,0,0,0,0,0,0,0,0,0,0,0,0,0,0,0,0,0,0,0,0,0],"id":27,"left_children":[1,3,-1,5,-1,7,9,11,-1,13,15,-1,-1,17,19,21,23,-1,-1,-1,-1,-1,-1,-1,-1],"loss_changes":[4.8869696E2,3.5987952E2,0E0,3.3232574E1,0E0,2.4828033E1,7.7768307E0,2.8852234E0,0E0,3.0764284E0,3.4147213E0,0E0,0E0,1.567606E0,2.0999415E0,2.8179655E0,2.7204404E0,0E0,0E0,0E0,0E0,0E0,0E0,0E0,0E0],"parents":[2147483647,0,0,1,1,3,3,5,5,6,6,7,7,9,9,10,10,13,13,14,14,15,15,16,16],"right_children":[2,4,-1,6,-1,8,10,12,-1,14,16,-1,-1,18,20,22,24,-1,-1,-1,-1,-1,-1,-1,-1],"split_conditions":[1.658783E-2,5.061584E-3,9.6694484E-2,3.852E1,1.0023824E-1,1.878E2,1.87E1,8.624414E1,9.010145E-2,5.0319705E0,1.314E0,5.8610598E-3,-4.9106468E-2,9.9835434E1,6.1E0,1.269E2,9.702736E1,-3.8370807E-2,-0E0,-3.8370416E-2,8.1525445E-3,-2.2005418E-3,3.995519E-2,-2.1080961E-2,1.3621719E-2],"split_indices":[10,11,0,2,0,1,6,0,0,19,20,0,0,0,6,1,0,0,0,0,0,0,0,0,0],"split_type":[0,0,0,0,0,0,0,0,0,0,0,0,0,0,0,0,0,0,0,0,0,0,0,0,0],"sum_hessian":[1.7358427E3,1.5189203E3,2.1692238E2,1.3979315E3,1.20988815E2,1.1906897E3,2.0724174E2,1.1838417E3,6.848135E0,1.1124832E2,9.599343E1,5.0554585E0,1.1787861E3,8.253353E1,2.8714788E1,3.763766E1,5.835577E1,7.509554E1,7.43799E0,6.817043E0,2.1897745E1,1.5986913E1,2.1650751E1,3.7494167E1,2.0861599E1],"tree_param":{"num_deleted":"0","num_feature":"24","num_nodes":"25","size_leaf_vector":"1"}},{"base_weights":[-2.2504317E-2,-4.885577E-2,2.0328863E-1,4.647715E-1,-4.777097E-2,6.7696106E-1,-5.2496202E-2,8.132372E-1,-4.7844615E-2,9.3119276E-1,-4.779838E-2,7.921414E-2,-4.6020746E-2],"categories":[],"categories_nodes":[],"categories_segments":[],"categories_sizes":[],"default_left":[0,0,0,0,0,0,0,0,0,0,0,0,0],"id":28,"left_children":[1,-1,3,5,-1,7,-1,9,-1,11,-1,-1,-1],"loss_changes":[2.3707655E2,0E0,2.701601E2,2.3204291E2,0E0,1.4307532E2,0E0,1.241788E2,0E0,6.1781067E1,0E0,0E0,0E0],"parents":[2147483647,0,0,2,2,3,3,5,5,7,7,9,9],"right_children":[2,-1,4,6,-1,8,-1,10,-1,12,-1,-1,-1],"split_conditions":[9.4E1,-4.885577E-2,3.363163E-3,5.061584E-3,-4.777097E-2,3.852E1,-5.2496202E-2,2.823267E-4,-4.7844615E-2,5.061584E-3,-4.779838E-2,7.921414E-2,-4.6020746E-2],"split_indices":[0,0,8,12,0,2,0,16,0,11,0,0,0],"split_type":[0,0,0,0,0,0,0,0,0,0,0,0,0],"sum_hessian":[1.781261E3,4.937664E2,1.2874946E3,9.712204E2,3.162742E2,8.1736316E2,1.5385721E2,7.391411E2,7.822205E1,6.8277423E2,5.6366898E1,6.577344E2,2.5039879E1],"tree_param":{"num_deleted":"0","num_feature":"24","num_nodes":"13","size_leaf_vector":"1"}},{"base_weights":[2.821011E-1,3.4739488E-1,-4.91505E-2,-4.8182596E-2,4.079692E-1,7.645424E-1,2.5205407E-1,8.1609684E-1,-4.474383E-2,5.2217282E-2,6.149067E-1,9.6225685E-1,3.4782284E-1,-1.3894087E-1,8.0098224E-1,8.325634E-1,-4.7889948E-2,8.37512E-2,2.8593978E-2,-4.8365336E-2,5.741432E-2,-2.7150813E-2,7.878845E-2,-5.0046023E-2,1.06840014E-1,7.125332E-2,-4.284762E-2],"categories":[],"categories_nodes":[],"categories_segments":[],"categories_sizes":[],"default_left":[0,0,0,0,0,0,0,0,0,0,0,0,0,0,0,0,0,0,0,0,0,0,0,0,0,0,0],"id":29,"left_children":[1,3,-1,-1,5,7,9,11,-1,13,15,17,19,21,23,25,-1,-1,-1,-1,-1,-1,-1,-1,-1,-1,-1],"loss_changes":[1.1830667E2,1.0853816E2,0E0,0E0,9.779584E1,3.7418213E1,8.924253E1,3.4543915E1,0E0,1.145893E2,1.16411804E2,1.9149048E1,4.5070583E1,1.4372697E2,1.2563574E2,3.038733E1,0E0,0E0,0E0,0E0,0E0,0E0,0E0,0E0,0E0,0E0,0E0],"parents":[2147483647,0,0,1,1,4,4,5,5,6,6,7,7,9,9,10,10,11,11,12,12,13,13,14,14,15,15],"right_children":[2,4,-1,-1,6,8,10,12,-1,14,16,18,20,22,24,26,-1,-1,-1,-1,-1,-1,-1,-1,-1,-1,-1],"split_conditions":[1.658783E-2,9E1,-4.91505E-2,-4.8182596E-2,9.4E1,5.061584E-3,1E0,5.061584E-3,-4.474383E-2,9.8188984E-1,3.363163E-3,3.363163E-3,-2E0,8.194246E-1,-2.0526989E0,5.061584E-3,-4.7889948E-2,8.37512E-2,2.8593978E-2,-4.8365336E-2,5.741432E-2,-2.7150813E-2,7.878845E-2,-5.0046023E-2,1.06840014E-1,7.125332E-2,-4.284762E-2],"split_indices":[10,0,0,0,0,11,8,12,0,12,9,9,7,16,7,11,0,0,0,0,0,0,0,0,0,0,0],"split_type":[0,0,0,0,0,0,0,0,0,0,0,0,0,0,0,0,0,0,0,0,0,0,0,0,0,0,0],"sum_hessian":[2.0155352E3,1.8798713E3,1.356639E2,1.1161512E2,1.7682562E3,5.355926E2,1.2326636E3,5.1628864E2,1.930396E1,7.9652795E2,4.3613562E2,3.91781E2,1.2450762E2,6.35187E2,1.6134094E2,3.7041653E2,6.571909E1,3.4229227E2,4.9488735E1,3.4333897E1,9.017373E1,5.4015674E2,9.5030304E1,4.3753056E1,1.1758788E2,3.56039E2,1.4377541E1],"tree_param":{"num_deleted":"0","num_feature":"24","num_nodes":"27","size_leaf_vector":"1"}},{"base_weights":[-1.2222083E-1,8.032466E-2,-2.6313588E-1,-4.3178612E-1,4.0694928E-1,-4.830473E-2,1.0833197E-1,-2.8597543E-1,9.543354E-1,9.7572774E-1,-5.203877E-1,-4.7864698E-2,3.5694793E-1,1.008913E0,-4.0146235E-2,1.066962E0,-4.0558834E-2,4.977146E-2,-5.721176E-1,9.635905E-1,-3.9706457E-1,8.43808E-2,6.7978853E-1,8.819672E-2,1.4624493E-2,-1.7694648E-2,-4.85133E-2,8.8455014E-2,1.9570842E-2,-0E0,-4.3752465E-2,6.878452E-2,1.3273493E-3],"categories":[],"categories_nodes":[],"categories_segments":[],"categories_sizes":[],"default_left":[0,0,0,0,0,0,0,0,0,0,0,0,0,0,0,0,0,0,0,0,0,0,0,0,0,0,0,0,0,0,0,0,0],"id":30,"left_children":[1,-1,3,5,7,-1,9,11,13,15,17,-1,19,21,-1,23,-1,-1,25,27,29,-1,31,-1,-1,-1,-1,-1,-1,-1,-1,-1,-1],"loss_changes":[2.7251822E2,0E0,1.7279128E2,1.13666824E2,1.1719715E2,0E0,1.6217078E2,2.7816254E1,1.4605713E1,1.7888084E1,1.0698097E1,0E0,2.1454626E1,9.2074585E-1,0E0,3.028839E0,0E0,0E0,1.5461998E0,1.819727E0,1.2734141E0,0E0,2.7494965E0,0E0,0E0,0E0,0E0,0E0,0E0,0E0,0E0,0E0,0E0],"parents":[2147483647,0,0,2,2,3,3,4,4,6,6,7,7,8,8,9,9,10,10,12,12,13,13,15,15,18,18,19,19,20,20,22,22],"right_children":[2,-1,4,6,8,-1,10,12,14,16,18,-1,20,22,-1,24,-1,-1,26,28,30,-1,32,-1,-1,-1,-1,-1,-1,-1,-1,-1,-1],"split_conditions":[9E1,8.032466E-2,3.363163E-3,1.4544666E-2,3.363163E-3,-4.830473E-2,-2.0526989E0,2.5179905E-1,1.658783E-2,1.658783E-2,6.06715E-1,-4.7864698E-2,-1.79E0,9.361548E-1,-4.0146235E-2,3.853E1,-4.0558834E-2,4.977146E-2,9.19E1,2.03E0,9.36E1,8.43808E-2,3.827E1,8.819672E-2,1.4624493E-2,-1.7694648E-2,-4.85133E-2,8.8455014E-2,1.9570842E-2,-0E0,-4.3752465E-2,6.878452E-2,1.3273493E-3],"split_indices":[0,0,9,12,8,0,7,12,10,10,12,0,7,14,0,2,0,0,0,17,0,0,2,0,0,0,0,0,0,0,0,0,0],"split_type":[0,0,0,0,0,0,0,0,0,0,0,0,0,0,0,0,0,0,0,0,0,0,0,0,0,0,0,0,0,0,0,0,0],"sum_hessian":[1.7144897E3,1.8939696E2,1.5250928E3,1.219216E3,3.0587692E2,9.2499225E2,2.9422363E2,1.3506686E2,1.7081004E2,1.23495605E2,1.7072804E2,9.128915E1,4.3777718E1,1.6528195E2,5.5280976E0,1.16923965E2,6.5716367E0,6.427511E0,1.6430054E2,2.424904E1,1.9528677E1,1.4137042E2,2.391153E1,1.1172864E2,5.1953273E0,1.6401787E1,1.4789874E2,1.9225164E1,5.023878E0,5.6869507E0,1.3841727E1,1.8101122E1,5.810407E0],"tree_param":{"num_deleted":"0","num_feature":"24","num_nodes":"33","size_leaf_vector":"1"}},{"base_weights":[-1.8679738E-1,-3.8646898E-1,9.115336E-2,-5.257664E-1,9.2433706E-2,-5.910468E-1,-1.5853813E-1,-6.045455E-1,8.088297E-2,9.648877E-2,-6.0075206E-1,-1.3671962E-2,-4.856694E-2,-4.900226E-2,-1.35310255E-2],"categories":[],"categories_nodes":[],"categories_segments":[],"categories_sizes":[],"default_left":[0,0,0,0,0,0,0,0,0,0,0,0,0,0,0],"id":31,"left_children":[1,3,-1,5,-1,7,9,11,-1,-1,13,-1,-1,-1,-1],"loss_changes":[4.4576465E2,3.149404E2,0E0,3.1829132E1,0E0,2.5427307E1,1.24882675E2,8.569336E-1,0E0,0E0,4.0468216E-1,0E0,0E0,0E0,0E0],"parents":[2147483647,0,0,1,1,3,3,5,5,6,6,7,7,10,10],"right_children":[2,4,-1,6,-1,8,10,12,-1,-1,14,-1,-1,-1,-1],"split_conditions":[1.658783E-2,5.061584E-3,9.115336E-2,3.852E1,9.2433706E-2,1.878E2,-2.951942E0,8.73E1,8.088297E-2,9.648877E-2,1.8088316E0,-1.3671962E-2,-4.856694E-2,-4.900226E-2,-1.35310255E-2],"split_indices":[10,11,0,2,0,1,7,0,0,0,4,0,0,0,0],"split_type":[0,0,0,0,0,0,0,0,0,0,0,0,0,0,0],"sum_hessian":[1.6802131E3,1.4614673E3,2.1874583E2,1.3414602E3,1.2000707E2,1.137518E3,2.039422E2,1.1291255E3,8.392435E0,4.911291E1,1.5482928E2,7.8627787E0,1.1212628E3,1.4942847E2,5.400824E0],"tree_param":{"num_deleted":"0","num_feature":"24","num_nodes":"15","size_leaf_vector":"1"}},{"base_weights":[-1.5054412E-2,1.24138206E-1,-4.9134426E-2,2.0801078E-1,-4.750032E-2,2.9126433E-1,-4.7483493E-2,3.665518E-1,-4.8168544E-2,4.0266344E-1,-4.6030506E-2,4.642174E-2,2.1140128E-2],"categories":[],"categories_nodes":[],"categories_segments":[],"categories_sizes":[],"default_left":[0,0,0,0,0,0,0,0,0,0,0,0,0],"id":32,"left_children":[1,3,-1,5,-1,7,-1,9,-1,11,-1,-1,-1],"loss_changes":[1.4482294E2,8.4817986E1,0E0,8.4368614E1,0E0,7.7231155E1,0E0,3.6238373E1,0E0,2.4563217E1,0E0,0E0,0E0],"parents":[2147483647,0,0,1,1,3,3,5,5,7,7,9,9],"right_children":[2,4,-1,6,-1,8,-1,10,-1,12,-1,-1,-1],"split_conditions":[5.061584E-3,3.852E1,-4.9134426E-2,2.823267E-4,-4.750032E-2,1.658783E-2,-4.7483493E-2,5.061584E-3,-4.8168544E-2,1.25E1,-4.6030506E-2,4.642174E-2,2.1140128E-2],"split_indices":[12,2,0,16,0,10,0,11,0,6,0,0,0],"split_type":[0,0,0,0,0,0,0,0,0,0,0,0,0],"sum_hessian":[1.7319788E3,1.4060134E3,3.259652E2,1.2602585E3,1.457549E2,1.1428822E3,1.1737638E2,1.055179E3,8.770322E1,1.01735315E3,3.7825825E1,4.4253796E2,5.748152E2],"tree_param":{"num_deleted":"0","num_feature":"24","num_nodes":"13","size_leaf_vector":"1"}},{"base_weights":[2.6616016E-1,3.2533473E-1,-4.8291624E-2,-4.7508586E-2,3.8297233E-1,7.2163785E-1,2.3153047E-1,8.202876E-1,1.0893074E-1,3.961113E-2,5.696209E-1,8.618116E-1,-4.1949175E-2,7.1088994E-1,-4.8712496E-2,-1.12645395E-1,7.5534326E-1,7.648161E-1,-4.7163438E-2,5.8904853E-2,7.133955E-2,-3.829255E-2,7.4476495E-2,-2.2902953E-2,7.106459E-2,6.8217896E-2,-4.5678325E-2,6.551531E-2,-4.2218678E-2],"categories":[],"categories_nodes":[],"categories_segments":[],"categories_sizes":[],"default_left":[0,0,0,0,0,0,0,0,0,0,0,0,0,0,0,0,0,0,0,0,0,0,0,0,0,0,0,0,0],"id":33,"left_children":[1,3,-1,-1,5,7,9,11,13,15,17,19,-1,21,-1,23,25,27,-1,-1,-1,-1,-1,-1,-1,-1,-1,-1,-1],"loss_changes":[1.0332391E2,9.972313E1,0E0,0E0,9.011505E1,3.2518616E1,7.921473E1,2.6944824E1,3.425803E1,8.56551E1,1.008728E2,2.3730469E-1,0E0,1.2108917E1,0E0,1.1259604E2,1.8625786E1,2.7298172E1,0E0,0E0,0E0,0E0,0E0,0E0,0E0,0E0,0E0,0E0,0E0],"parents":[2147483647,0,0,1,1,4,4,5,5,6,6,7,7,8,8,9,9,10,10,11,11,13,13,15,15,16,16,17,17],"right_children":[2,4,-1,-1,6,8,10,12,14,16,18,20,-1,22,-1,24,26,28,-1,-1,-1,-1,-1,-1,-1,-1,-1,-1,-1],"split_conditions":[1.658783E-2,9E1,-4.8291624E-2,-4.7508586E-2,9.4E1,3.363163E-3,1E0,5.061584E-3,3.363163E-3,3.852E1,3.363163E-3,9.15E1,-4.1949175E-2,7.4112064E-1,-4.8712496E-2,1E0,5.061584E-3,5.061584E-3,-4.7163438E-2,5.8904853E-2,7.133955E-2,-3.829255E-2,7.4476495E-2,-2.2902953E-2,7.106459E-2,6.8217896E-2,-4.5678325E-2,6.551531E-2,-4.2218678E-2],"split_indices":[10,0,0,0,0,9,8,11,8,2,9,0,0,9,0,16,11,11,0,0,0,0,0,0,0,0,0,0,0],"split_type":[0,0,0,0,0,0,0,0,0,0,0,0,0,0,0,0,0,0,0,0,0,0,0,0,0,0,0,0,0],"sum_hessian":[2.0018442E3,1.875532E3,1.2631223E2,1.09534836E2,1.7659972E3,5.433311E2,1.222666E3,4.671235E2,7.620764E1,7.815672E2,4.4109888E2,4.5386935E2,1.3254133E1,4.1684532E1,3.4523113E1,6.451667E2,1.3640048E2,3.7818433E2,6.291453E1,9.672901E1,3.5714035E2,6.01972E0,3.5664814E1,5.509591E2,9.420761E1,1.2778047E2,8.620014E0,3.6373474E2,1.4449608E1],"tree_param":{"num_deleted":"0","num_feature":"24","num_nodes":"29","size_leaf_vector":"1"}},{"base_weights":[-1.24441005E-1,-2.7081585E-1,4.3331128E-1,-4.358479E-1,2.2494549E-1,-5.242721E-2,8.832864E-1,-4.6121705E-1,-2.3647258E-1,9.264562E-1,-2.8149903E-1,7.1461385E-1,-3.24826E-1,9.3334144E-1,-3.9603624E-2,-4.7704983E-1,-2.5580442E-1,5.767501E-1,-3.931952E-1,9.6695775E-1,-0E0,7.4599993E-1,-4.3598524E-1,7.200316E-2,-3.5292048E-2,-4.296875E-1,4.59006E-3,7.7864885E-2,6.372331E-1,-4.3790942E-1,-5.4908997E-1,5.432697E-1,-4.501977E-1,1.5616163E-2,5.4277387E-2,-4.0531386E-2,-3.2608888E-1,7.9271905E-2,1.911383E-2,6.730306E-2,2.5959553E-2,-3.4496325E-1,-4.0283833E-2,-5.090671E-1,1.5514797E-2,6.851505E-2,-4.4512328E-2,8.077408E-1,-0E0,-3.829698E-2,1.6950889E-2,-4.558613E-2,-3.1894248E-2,6.263684E-2,5.4429513E-3,-1.8242765E-3,-3.8982876E-2,1.0180173E-3,-3.424859E-2,-0E0,-3.0691868E-2,-4.400618E-2,-2.1595769E-2,7.342119E-2,2.7911054E-2],"categories":[],"categories_nodes":[],"categories_segments":[],"categories_sizes":[],"default_left":[0,0,0,0,0,0,0,0,0,0,0,0,0,0,0,0,0,0,0,0,0,0,0,0,0,0,0,0,0,0,0,0,0,0,0,0,0,0,0,0,0,0,0,0,0,0,0,0,0,0,0,0,0,0,0,0,0,0,0,0,0,0,0,0,0],"id":34,"left_children":[1,3,5,7,9,11,13,15,17,19,21,23,25,27,-1,29,31,33,35,37,-1,39,41,-1,-1,43,45,-1,47,49,51,53,55,-1,-1,-1,57,-1,-1,-1,-1,59,-1,61,-1,-1,-1,63,-1,-1,-1,-1,-1,-1,-1,-1,-1,-1,-1,-1,-1,-1,-1,-1,-1],"loss_changes":[1.3293909E2,1.0574971E2,7.4267166E1,4.5270386E0,1.15231895E2,3.445451E1,1.2969559E1,2.3826141E0,1.4784599E1,4.971283E0,3.0285648E1,9.97089E0,4.351284E0,6.055603E-1,0E0,1.5766907E0,1.0572758E1,2.642498E-1,2.3766708E-1,1.542923E0,0E0,2.4132729E-1,4.9894714E-1,0E0,0E0,4.865801E0,1.5283391E1,0E0,2.8602476E0,1.4108185E1,2.1160889E-1,1.1762605E0,6.8807316E-1,0E0,0E0,0E0,2.4333797E0,0E0,0E0,0E0,0E0,1.025343E0,0E0,3.5192108E-1,0E0,0E0,0E0,1.6305733E-1,0E0,0E0,0E0,0E0,0E0,0E0,0E0,0E0,0E0,0E0,0E0,0E0,0E0,0E0,0E0,0E0,0E0],"parents":[2147483647,0,0,1,1,2,2,3,3,4,4,5,5,6,6,7,7,8,8,9,9,10,10,11,11,12,12,13,13,15,15,16,16,17,17,18,18,19,19,21,21,22,22,25,25,26,26,28,28,29,29,30,30,31,31,32,32,36,36,41,41,43,43,47,47],"right_children":[2,4,6,8,10,12,14,16,18,20,22,24,26,28,-1,30,32,34,36,38,-1,40,42,-1,-1,44,46,-1,48,50,52,54,56,-1,-1,-1,58,-1,-1,-1,-1,60,-1,62,-1,-1,-1,64,-1,-1,-1,-1,-1,-1,-1,-1,-1,-1,-1,-1,-1,-1,-1,-1,-1],"split_conditions":[3.363163E-3,1.2277611E-2,3.363163E-3,2.823267E-4,-2E0,9.95368E-1,1.658783E-2,1.703E0,9.6646756E-1,3.853E1,9.911686E-1,1.658783E-2,5.061584E-3,9.361548E-1,-3.9603624E-2,1.347E2,1.573E2,-5.2E-1,1.258E0,1.718E2,-0E0,3.792E1,3.711E1,7.200316E-2,-3.5292048E-2,1.679E0,-1.68E0,7.7864885E-2,3.839E1,1.42E0,1.641E0,8.2E-1,3.575E1,1.5616163E-2,5.4277387E-2,-4.0531386E-2,1.267E2,7.9271905E-2,1.911383E-2,6.730306E-2,2.5959553E-2,-1.26E0,-4.0283833E-2,1.524E0,1.5514797E-2,6.851505E-2,-4.4512328E-2,6E-1,-0E0,-3.829698E-2,1.6950889E-2,-4.558613E-2,-3.1894248E-2,6.263684E-2,5.4429513E-3,-1.8242765E-3,-3.8982876E-2,1.0180173E-3,-3.424859E-2,-0E0,-3.0691868E-2,-4.400618E-2,-2.1595769E-2,7.342119E-2,2.7911054E-2],"split_indices":[9,12,8,16,7,9,10,4,16,2,12,10,12,14,0,1,1,18,4,1,0,2,21,0,0,4,7,0,21,4,4,19,2,0,0,0,1,0,0,0,0,7,0,4,0,0,0,18,0,0,0,0,0,0,0,0,0,0,0,0,0,0,0,0,0],"split_type":[0,0,0,0,0,0,0,0,0,0,0,0,0,0,0,0,0,0,0,0,0,0,0,0,0,0,0,0,0,0,0,0,0,0,0,0,0,0,0,0,0,0,0,0,0,0,0,0,0,0,0,0,0,0,0,0,0,0,0,0,0,0,0,0,0],"sum_hessian":[1.6252802E3,1.2884521E3,3.36828E2,9.6725336E2,3.211988E2,1.6229384E2,1.7453416E2,8.549875E2,1.1226587E2,1.3439186E2,1.8680693E2,4.1604446E1,1.2068939E2,1.6909529E2,5.438875E0,7.9060516E2,6.438236E1,1.718093E1,9.508494E1,1.2856328E2,5.8285713E0,2.3411312E1,1.6339563E2,3.636213E1,5.242318E0,9.189196E1,2.8797434E1,1.4506966E2,2.4025629E1,5.2185596E2,2.687492E2,1.1769066E1,5.2613297E1,5.1586065E0,1.2022322E1,3.0027102E1,6.505784E1,1.23546844E2,5.016435E0,1.7295721E1,6.11559E0,7.540599E1,8.798963E1,8.218713E1,9.704827E0,1.1333202E1,1.7464231E1,1.877042E1,5.2552104E0,4.9182898E2,3.002695E1,2.3075824E2,3.7990963E1,6.7580013E0,5.011065E0,5.0403943E0,4.75729E1,1.4679146E1,5.0378693E1,7.761338E0,6.764465E1,6.74192E1,1.4767933E1,1.3402706E1,5.3677135E0],"tree_param":{"num_deleted":"0","num_feature":"24","num_nodes":"65","size_leaf_vector":"1"}},{"base_weights":[-1.8536806E-1,-3.7968558E-1,8.523563E-2,-5.1651114E-1,8.6699806E-2,-5.836678E-1,-1.4216584E-1,-5.967073E-1,4.6078497E-1,-5.9532505E-1,9.28875E-2,-1.6802967E-2,-4.794646E-2,-1.1488186E-2,6.823016E-2,-4.857428E-2,-1.5960408E-2],"categories":[],"categories_nodes":[],"categories_segments":[],"categories_sizes":[],"default_left":[0,0,0,0,0,0,0,0,0,0,0,0,0,0,0,0,0],"id":35,"left_children":[1,3,-1,5,-1,7,9,11,13,15,-1,-1,-1,-1,-1,-1,-1],"loss_changes":[3.9633853E2,2.8325623E2,0E0,3.2133636E1,0E0,1.5354614E1,1.1848749E2,6.6552734E-1,3.7270036E0,2.7509308E-1,0E0,0E0,0E0,0E0,0E0,0E0,0E0],"parents":[2147483647,0,0,1,1,3,3,5,5,6,6,7,7,8,8,9,9],"right_children":[2,4,-1,6,-1,8,10,12,14,16,-1,-1,-1,-1,-1,-1,-1],"split_conditions":[1.658783E-2,5.061584E-3,8.523563E-2,3.852E1,8.6699806E-2,1.936E0,4.0436125E-1,8.73E1,9.454632E1,1.8088316E0,9.28875E-2,-1.6802967E-2,-4.794646E-2,-1.1488186E-2,6.823016E-2,-4.857428E-2,-1.5960408E-2],"split_indices":[10,11,0,2,0,4,14,0,0,4,0,0,0,0,0,0,0],"split_type":[0,0,0,0,0,0,0,0,0,0,0,0,0,0,0,0,0],"sum_hessian":[1.6275034E3,1.4097753E3,2.1772821E2,1.2903115E3,1.1946372E2,1.0926521E3,1.9765942E2,1.0800979E3,1.25542345E1,1.4743832E2,5.0221107E1,8.868918E0,1.071229E3,5.0127983E0,7.541436E0,1.4163785E2,5.800462E0],"tree_param":{"num_deleted":"0","num_feature":"24","num_nodes":"17","size_leaf_vector":"1"}},{"base_weights":[-1.653711E-2,-4.802497E-2,1.9797814E-1,4.3915284E-1,-4.6937242E-2,6.241481E-1,-5.1217087E-2,7.5697035E-1,-5.6277406E-1,8.5928947E-1,-4.6349984E-2,-1.1437163E-2,-4.6961714E-2,7.676068E-2,-4.739231E-2],"categories":[],"categories_nodes":[],"categories_segments":[],"categories_sizes":[],"default_left":[0,0,0,0,0,0,0,0,0,0,0,0,0,0,0],"id":36,"left_children":[1,-1,3,5,-1,7,-1,9,11,13,-1,-1,-1,-1,-1],"loss_changes":[2.1325093E2,0E0,2.3582388E2,1.908722E2,0E0,1.2910193E2,0E0,1.0110962E2,4.9598312E-1,1.001911E2,0E0,0E0,0E0,0E0,0E0],"parents":[2147483647,0,0,2,2,3,3,5,5,7,7,8,8,9,9],"right_children":[2,-1,4,6,-1,8,-1,10,12,14,-1,-1,-1,-1,-1],"split_conditions":[9.4E1,-4.802497E-2,3.363163E-3,5.061584E-3,-4.6937242E-2,3.849E1,-5.1217087E-2,2.823267E-4,3.853E1,1.658783E-2,-4.6349984E-2,-1.1437163E-2,-4.6961714E-2,7.676068E-2,-4.739231E-2],"split_indices":[0,0,8,12,0,2,0,16,2,10,0,0,0,0,0],"split_type":[0,0,0,0,0,0,0,0,0,0,0,0,0,0,0],"sum_hessian":[1.699005E3,4.5620468E2,1.2428003E3,9.514241E2,2.9137622E2,8.1299365E2,1.384304E2,7.31888E2,8.110566E1,6.805414E2,5.1346615E1,5.6691275E0,7.543653E1,6.372626E2,4.3278816E1],"tree_param":{"num_deleted":"0","num_feature":"24","num_nodes":"15","size_leaf_vector":"1"}},{"base_weights":[2.4413817E-1,2.9859564E-1,-4.7469273E-2,3.3689255E-1,-4.8571397E-2,4.1771564E-1,-1.33462E-1,2.6373923E-1,7.3703605E-1,1.7557359E-1,-4.7930587E-2,1.5936206E-1,6.815185E-1,8.363502E-1,3.5908866E-1,-4.354738E-2,2.8361264E-1,4.0666535E-3,5.68384E-2,-4.9248405E-2,8.776406E-2,7.0733346E-2,4.0420685E-2,-5.4517552E-2,6.2285125E-2,1.09918695E-2,5.688692E-2],"categories":[],"categories_nodes":[],"categories_segments":[],"categories_sizes":[],"default_left":[0,0,0,0,0,0,0,0,0,0,0,0,0,0,0,0,0,0,0,0,0,0,0,0,0,0,0],"id":37,"left_children":[1,3,-1,5,-1,7,9,11,13,15,-1,17,19,21,23,-1,25,-1,-1,-1,-1,-1,-1,-1,-1,-1,-1],"loss_changes":[8.9493965E1,6.40535E1,0E0,6.7332565E1,0E0,7.358182E1,3.765257E1,4.4097054E1,1.7557465E1,1.2353323E1,0E0,4.8718742E1,1.1058208E2,5.019867E0,4.6690796E1,0E0,8.20772E0,0E0,0E0,0E0,0E0,0E0,0E0,0E0,0E0,0E0,0E0],"parents":[2147483647,0,0,1,1,3,3,5,5,6,6,7,7,8,8,9,9,11,11,12,12,13,13,14,14,16,16],"right_children":[2,4,-1,6,-1,8,10,12,14,16,-1,18,20,22,24,-1,26,-1,-1,-1,-1,-1,-1,-1,-1,-1,-1],"split_conditions":[1.658783E-2,5.061584E-3,-4.7469273E-2,3.363163E-3,-4.8571397E-2,9.7363305E-1,3.363163E-3,9.911686E-1,5.061584E-3,9.95368E-1,-4.7930587E-2,3.852E1,-2.0526989E0,3.856E1,-2E0,-4.354738E-2,5.8991766E-1,4.0666535E-3,5.68384E-2,-4.9248405E-2,8.776406E-2,7.0733346E-2,4.0420685E-2,-5.4517552E-2,6.2285125E-2,1.09918695E-2,5.688692E-2],"split_indices":[10,11,0,9,0,8,8,12,12,9,0,2,7,21,7,0,12,0,0,0,0,0,0,0,0,0,0],"split_type":[0,0,0,0,0,0,0,0,0,0,0,0,0,0,0,0,0,0,0,0,0,0,0,0,0,0,0],"sum_hessian":[1.9568385E3,1.838609E3,1.1822946E2,1.7652434E3,7.336567E1,1.5070807E3,2.5816263E2,1.0192679E3,4.8781287E2,1.553542E2,1.0280841E2,8.1775244E2,2.015154E2,3.842338E2,1.0357907E2,1.911924E1,1.3623497E2,6.850347E2,1.3271774E2,4.8542175E1,1.5297322E2,3.3276385E2,5.146995E1,2.928418E1,7.429489E1,1.0351303E2,3.272194E1],"tree_param":{"num_deleted":"0","num_feature":"24","num_nodes":"27","size_leaf_vector":"1"}},{"base_weights":[-1.2482824E-1,9.01146E-1,-2.6126194E-1,9.157228E-1,3.6391146E-2,-4.1844946E-1,3.5022715E-1,2.9429164E-2,7.4290015E-2,-6.963774E-2,-5.758075E-1,-2.8786737E-1,8.3768183E-1,9.070739E-2,-1.8534875E-1,-5.815899E-1,1.2125795E-2,1.18839964E-1,-4.509637E-2,7.018652E-2,5.4160655E-1,-6.2760495E-2,6.315286E-1,-9.928246E-2,-3.7037708E-2,-2.8746206E-1,-4.6913445E-2,4.7152188E-2,-9.7026475E-2,6.154297E-2,-0E0,-3.767044E-2,2.8838802E-3,5.692915E-2,8.900855E-3,1.1865107E-3,-2.450445E-2,6.6309697E-3,-3.913026E-2,1.4122517E-2,-2.9522117E-2],"categories":[],"categories_nodes":[],"categories_segments":[],"categories_sizes":[],"default_left":[0,0,0,0,0,0,0,0,0,0,0,0,0,0,0,0,0,0,0,0,0,0,0,0,0,0,0,0,0,0,0,0,0,0,0,0,0,0,0,0,0],"id":38,"left_children":[1,3,5,7,-1,9,11,-1,-1,13,15,17,19,21,23,25,-1,27,-1,-1,29,31,33,35,-1,37,-1,-1,39,-1,-1,-1,-1,-1,-1,-1,-1,-1,-1,-1,-1],"loss_changes":[2.2288438E2,1.7932129E-1,1.3536389E2,3.6245728E-1,0E0,6.118834E1,9.007582E1,0E0,0E0,6.5529504E0,3.5023499E0,1.4317007E1,7.852402E-1,1.2410209E1,4.6617846E0,5.716858E-1,0E0,5.467997E0,0E0,0E0,2.9301867E0,4.8032665E0,1.0096016E0,3.8566055E0,0E0,1.4004374E0,0E0,0E0,2.8473125E0,0E0,0E0,0E0,0E0,0E0,0E0,0E0,0E0,0E0,0E0,0E0,0E0],"parents":[2147483647,0,0,1,1,2,2,3,3,5,5,6,6,9,9,10,10,11,11,12,12,13,13,14,14,15,15,17,17,20,20,21,21,22,22,23,23,25,25,28,28],"right_children":[2,4,6,8,-1,10,12,-1,-1,14,16,18,20,22,24,26,-1,28,-1,-1,30,32,34,36,-1,38,-1,-1,40,-1,-1,-1,-1,-1,-1,-1,-1,-1,-1,-1,-1],"split_conditions":[9E1,3.915E1,3.363163E-3,-9.5E0,3.6391146E-2,-2E0,3.363163E-3,2.9429164E-2,7.4290015E-2,9.8341215E-1,4.9762648E-2,-1.79E0,9.688169E-1,1.3484751E-2,3.803E1,9.05E1,1.2125795E-2,9.633168E-1,-4.509637E-2,7.018652E-2,2.95E0,6.3E0,3.778E1,9.711308E1,-3.7037708E-2,-5.795694E-1,-4.6913445E-2,4.7152188E-2,-3.911105E-1,6.154297E-2,-0E0,-3.767044E-2,2.8838802E-3,5.692915E-2,8.900855E-3,1.1865107E-3,-2.450445E-2,6.6309697E-3,-3.913026E-2,1.4122517E-2,-2.9522117E-2],"split_indices":[0,21,9,19,0,7,8,0,0,14,14,7,14,14,21,0,0,9,0,0,19,3,2,0,0,7,0,0,18,0,0,0,0,0,0,0,0,0,0,0,0],"split_type":[0,0,0,0,0,0,0,0,0,0,0,0,0,0,0,0,0,0,0,0,0,0,0,0,0,0,0,0,0,0,0,0,0,0,0,0,0,0,0,0,0],"sum_hessian":[1.5896361E3,1.8533328E2,1.4043029E3,1.7729184E2,8.041443E0,1.1179025E3,2.8640042E2,5.632787E0,1.7165906E2,3.4879886E2,7.691035E2,1.2403422E2,1.6236621E2,1.4525081E2,2.0354807E2,7.6374524E2,5.358325E0,5.003154E1,7.400268E1,1.396999E2,2.2666311E1,1.1374484E2,3.1505957E1,1.577582E2,4.5789875E1,1.4804751E1,7.489405E2,1.535458E1,3.467696E1,1.5429757E1,7.2365546E0,2.1661627E1,9.208322E1,2.6325348E1,5.180609E0,1.0166343E2,5.609477E1,5.0064855E0,9.798265E0,1.7001558E1,1.76754E1],"tree_param":{"num_deleted":"0","num_feature":"24","num_nodes":"41","size_leaf_vector":"1"}},{"base_weights":[-1.809195E-1,-3.7184012E-1,7.9757124E-2,-5.1281226E-1,8.150395E-2,-5.761636E-1,-1.6332011E-1,-5.902315E-1,7.671162E-2,-5.872811E-1,8.8468924E-2,-1.5048902E-2,-4.7441125E-2,-4.7980018E-2,-1.6553182E-2],"categories":[],"categories_nodes":[],"categories_segments":[],"categories_sizes":[],"default_left":[0,0,0,0,0,0,0,0,0,0,0,0,0,0,0],"id":39,"left_children":[1,3,-1,5,-1,7,9,11,-1,13,-1,-1,-1,-1,-1],"loss_changes":[3.4304706E2,2.5795264E2,0E0,2.6050201E1,0E0,2.2518768E1,1.0083865E2,7.17865E-1,0E0,2.3820114E-1,0E0,0E0,0E0,0E0,0E0],"parents":[2147483647,0,0,1,1,3,3,5,5,6,6,7,7,9,9],"right_children":[2,4,-1,6,-1,8,10,12,-1,14,-1,-1,-1,-1,-1],"split_conditions":[1.658783E-2,5.061584E-3,7.9757124E-2,3.852E1,8.150395E-2,1.878E2,4.0436125E-1,8.73E1,7.671162E-2,1.725E2,8.8468924E-2,-1.5048902E-2,-4.7441125E-2,-4.7980018E-2,-1.6553182E-2],"split_indices":[10,11,0,2,0,1,14,0,0,1,0,0,0,0,0],"split_type":[0,0,0,0,0,0,0,0,0,0,0,0,0,0,0],"sum_hessian":[1.5223131E3,1.3110836E3,2.1122955E2,1.1914648E3,1.1961876E2,1.0070828E3,1.8438202E2,9.9904584E2,8.036981E0,1.3899428E2,4.538775E1,8.313784E0,9.9073206E2,1.3298103E2,6.0132437E0],"tree_param":{"num_deleted":"0","num_feature":"24","num_nodes":"15","size_leaf_vector":"1"}},{"base_weights":[-1.1487363E-2,-4.759283E-2,1.9911261E-1,3.5468972E-1,-4.902562E-2,4.573287E-1,-4.976733E-1,6.511967E-1,-4.7307644E-2,-1.067975E-1,-4.344131E-2,7.403377E-1,-4.5723062E-2,3.069973E-1,-4.3556977E-2,1.9717077E-2,-3.0669982E-2,6.656231E-2,-4.6266455E-2,-8.36347E-3,4.3401685E-2],"categories":[],"categories_nodes":[],"categories_segments":[],"categories_sizes":[],"default_left":[0,0,0,0,0,0,0,0,0,0,0,0,0,0,0,0,0,0,0,0,0],"id":40,"left_children":[1,-1,3,5,-1,7,9,11,13,15,-1,17,-1,19,-1,-1,-1,-1,-1,-1,-1],"loss_changes":[2.0386469E2,0E0,1.5411743E2,8.987019E1,0E0,8.970415E1,1.6748219E0,7.276181E1,4.5205364E1,1.5536903E0,0E0,7.542697E1,0E0,1.4696175E1,0E0,0E0,0E0,0E0,0E0,0E0,0E0],"parents":[2147483647,0,0,2,2,3,3,5,5,6,6,7,7,8,8,9,9,11,11,13,13],"right_children":[2,-1,4,6,-1,8,10,12,14,16,-1,18,-1,20,-1,-1,-1,-1,-1,-1,-1],"split_conditions":[9.4E1,-4.759283E-2,5.061584E-3,3.851E1,-4.902562E-2,4.2E1,3.858E1,2.823267E-4,9.830444E0,-8.3E-1,-4.344131E-2,1.658783E-2,-4.5723062E-2,-1.68E0,-4.3556977E-2,1.9717077E-2,-3.0669982E-2,6.656231E-2,-4.6266455E-2,-8.36347E-3,4.3401685E-2],"split_indices":[0,0,12,21,0,5,21,16,3,19,0,10,0,7,0,0,0,0,0,0,0],"split_type":[0,0,0,0,0,0,0,0,0,0,0,0,0,0,0,0,0,0,0,0,0],"sum_hessian":[1.655293E3,4.3868777E2,1.2166051E3,1.0219921E3,1.9461304E2,9.1308795E2,1.0890415E2,6.597776E2,2.5331038E2,1.2531009E1,9.637314E1,6.1572644E2,4.4051125E1,1.4788683E2,1.05423546E2,5.0980754E0,7.4329333E0,5.764267E2,3.929974E1,5.3669044E1,9.421779E1],"tree_param":{"num_deleted":"0","num_feature":"24","num_nodes":"21","size_leaf_vector":"1"}},{"base_weights":[2.4542698E-1,2.974272E-1,-4.684191E-2,3.340735E-1,-4.8022155E-2,4.0822056E-1,-1.2126741E-1,2.6182196E-1,7.0550865E-1,1.6466793E-1,-4.729484E-2,3.4200072E-1,-1.9801347E-1,4.69007E-1,6.650403E-2,-4.235575E-2,2.596525E-1,1.9164016E-2,6.697753E-2,-1.0732901E-2,-4.8264604E-2,4.4576664E-2,-2.1503683E-2,-0E0,3.156036E-2],"categories":[],"categories_nodes":[],"categories_segments":[],"categories_sizes":[],"default_left":[0,0,0,0,0,0,0,0,0,0,0,0,0,0,0,0,0,0,0,0,0,0,0,0,0],"id":41,"left_children":[1,3,-1,5,-1,7,9,11,13,15,-1,17,19,21,-1,-1,23,-1,-1,-1,-1,-1,-1,-1,-1],"loss_changes":[8.451455E1,6.0695084E1,0E0,5.9833023E1,0E0,6.562393E1,3.360946E1,3.78283E1,1.3907715E1,1.0345629E1,0E0,4.3589058E1,3.5948215E0,1.1892212E1,0E0,0E0,4.7940617E0,0E0,0E0,0E0,0E0,0E0,0E0,0E0,0E0],"parents":[2147483647,0,0,1,1,3,3,5,5,6,6,7,7,8,8,9,9,11,11,12,12,13,13,16,16],"right_children":[2,4,-1,6,-1,8,10,12,14,16,-1,18,20,22,-1,-1,24,-1,-1,-1,-1,-1,-1,-1,-1],"split_conditions":[1.658783E-2,5.061584E-3,-4.684191E-2,3.363163E-3,-4.8022155E-2,9.7363305E-1,3.363163E-3,1.3484751E-2,-1.26E0,9.840835E-1,-4.729484E-2,3.852E1,3.852E1,3.856E1,6.650403E-2,-4.235575E-2,-1.1308403E0,1.9164016E-2,6.697753E-2,-1.0732901E-2,-4.8264604E-2,4.4576664E-2,-2.1503683E-2,-0E0,3.156036E-2],"split_indices":[10,11,0,9,0,8,8,14,7,9,0,2,2,2,0,0,7,0,0,0,0,0,0,0,0],"split_type":[0,0,0,0,0,0,0,0,0,0,0,0,0,0,0,0,0,0,0,0,0,0,0,0,0],"sum_hessian":[1.9503746E3,1.8367561E3,1.13618546E2,1.7659423E3,7.08138E1,1.519348E3,2.4659427E2,1.0205912E3,4.987568E2,1.5351784E2,9.307643E1,8.699414E2,1.5064978E2,1.764638E2,3.2229297E2,1.7273024E1,1.3624481E2,7.231648E2,1.467766E2,1.3251015E2,1.8139624E1,1.5831204E2,1.8151772E1,4.7271305E1,8.897351E1],"tree_param":{"num_deleted":"0","num_feature":"24","num_nodes":"25","size_leaf_vector":"1"}},{"base_weights":[-1.2047826E-1,8.590957E-1,-2.5554717E-1,6.971478E-2,2.915046E-2,-4.1166857E-1,3.2060334E-1,-4.6829246E-2,1.01123944E-1,-2.799244E-1,7.8564703E-1,8.336152E-1,-5.0641465E-1,-4.6372212E-2,2.5499487E-1,6.675351E-2,4.0969694E-1,8.75683E-1,3.275799E-3,4.4418957E-2,-5.592484E-1,7.1788025E-1,-3.638687E-2,5.116993E-2,-3.2470261E-3,7.254259E-2,1.7333247E-2,-5.389135E-3,-4.6299268E-2,6.4556666E-2,1.4540025E-2],"categories":[],"categories_nodes":[],"categories_segments":[],"categories_sizes":[],"default_left":[0,0,0,0,0,0,0,0,0,0,0,0,0,0,0,0,0,0,0,0,0,0,0,0,0,0,0,0,0,0,0],"id":42,"left_children":[1,3,5,-1,-1,7,9,-1,11,13,15,17,19,-1,21,-1,23,25,-1,-1,27,29,-1,-1,-1,-1,-1,-1,-1,-1,-1],"loss_changes":[2.0382588E2,2.92099E-1,1.22042305E2,0E0,0E0,9.523804E1,8.123822E1,0E0,1.2120592E2,2.0685137E1,2.1145096E0,3.79039E0,8.80719E0,0E0,1.5780857E1,0E0,2.5424285E0,1.7635269E0,0E0,0E0,1.1154976E0,8.617296E-1,0E0,0E0,0E0,0E0,0E0,0E0,0E0,0E0,0E0],"parents":[2147483647,0,0,1,1,2,2,5,5,6,6,8,8,9,9,10,10,11,11,12,12,14,14,16,16,17,17,20,20,21,21],"right_children":[2,4,6,-1,-1,8,10,-1,12,14,16,18,20,-1,22,-1,24,26,-1,-1,28,30,-1,-1,-1,-1,-1,-1,-1,-1,-1],"split_conditions":[9E1,3.916E1,3.363163E-3,6.971478E-2,2.915046E-2,1.4544666E-2,3.363163E-3,-4.6829246E-2,-2E0,8.534967E-2,9.626484E-1,3.853E1,6.06715E-1,-4.6372212E-2,-1.16E0,6.675351E-2,2.95E0,1.693E2,3.275799E-3,4.4418957E-2,9.1E1,9.6E0,-3.638687E-2,5.116993E-2,-3.2470261E-3,7.254259E-2,1.7333247E-2,-5.389135E-3,-4.6299268E-2,6.4556666E-2,1.4540025E-2],"split_indices":[0,2,9,0,0,12,8,0,7,12,14,2,12,0,7,0,19,1,0,0,0,3,0,0,0,0,0,0,0,0,0],"split_type":[0,0,0,0,0,0,0,0,0,0,0,0,0,0,0,0,0,0,0,0,0,0,0,0,0,0,0,0,0,0,0],"sum_hessian":[1.5378973E3,1.8511406E2,1.3527833E3,1.7890326E2,6.210805E0,1.0651146E3,2.8766873E2,7.958955E2,2.6921912E2,1.2552533E2,1.621434E2,1.2202855E2,1.4719058E2,8.0727264E1,4.4798065E1,1.4119855E2,2.0944849E1,1.15370155E2,6.6583934E0,6.032403E0,1.4115817E2,2.7361242E1,1.7436823E1,1.3888519E1,7.0563297E0,1.09197876E2,6.1722775E0,6.2220273E0,1.3493614E2,2.2333267E1,5.0279756E0],"tree_param":{"num_deleted":"0","num_feature":"24","num_nodes":"31","size_leaf_vector":"1"}},{"base_weights":[-1.7301063E-1,-3.6446118E-1,7.555005E-2,-4.245824E-1,-5.1946696E-2,-4.3686157E-1,7.1272925E-2,-4.149035E-1,7.69483E-2,-0E0,-4.4002053E-1,-4.355176E-1,3.9363015E-3,-4.2181003E-1,-5.074879E-1,-0E0,-4.520401E-1,-3.4041215E-2,-5.402052E-3,-4.153089E-2,-1.1530686E-2,-5.2751177E-3,-3.715681E-2],"categories":[],"categories_nodes":[],"categories_segments":[],"categories_sizes":[],"default_left":[0,0,0,0,0,0,0,0,0,0,0,0,0,0,0,0,0,0,0,0,0,0,0],"id":43,"left_children":[1,3,-1,5,7,9,-1,11,-1,-1,13,15,-1,17,19,-1,21,-1,-1,-1,-1,-1,-1],"loss_changes":[3.203371E2,2.3842392E1,0E0,1.7748947E1,7.725191E1,1.3809967E0,0E0,1.630867E0,0E0,0E0,6.9548035E-1,1.145731E0,0E0,9.151001E-1,5.911751E-1,0E0,4.8582458E-1,0E0,0E0,0E0,0E0,0E0,0E0],"parents":[2147483647,0,0,1,1,3,3,4,4,5,5,7,7,10,10,11,11,13,13,14,14,16,16],"right_children":[2,4,-1,6,8,10,-1,12,-1,-1,14,16,-1,18,20,-1,22,-1,-1,-1,-1,-1,-1],"split_conditions":[1.658783E-2,3.848E1,7.555005E-2,1.878E2,4.0436125E-1,8.73E1,7.1272925E-2,1.763E2,7.69483E-2,-0E0,2.117E0,3.8493896E1,3.9363015E-3,2.092E0,1.693E2,-0E0,8.81E1,-3.4041215E-2,-5.402052E-3,-4.153089E-2,-1.1530686E-2,-5.2751177E-3,-3.715681E-2],"split_indices":[10,21,0,1,14,0,0,1,0,0,20,21,0,20,1,0,0,0,0,0,0,0,0],"split_type":[0,0,0,0,0,0,0,0,0,0,0,0,0,0,0,0,0,0,0,0,0,0,0],"sum_hessian":[1.4943328E3,1.2768408E3,2.1749191E2,1.0695785E3,2.0726228E2,1.0609056E3,8.672881E0,1.5349179E2,5.3770485E1,8.066833E0,1.0528389E3,1.4767152E2,5.8202753E0,8.411293E2,2.1170956E2,5.0984726E0,1.4257304E2,8.312872E2,9.84208E0,2.0371039E2,7.9991827E0,5.491049E0,1.37082E2],"tree_param":{"num_deleted":"0","num_feature":"24","num_nodes":"23","size_leaf_vector":"1"}},{"base_weights":[-3.4740053E-2,-4.713629E-2,1.6814561E-1,3.8735482E-1,-4.6092514E-2,5.6593263E-1,-4.9920727E-2,6.812721E-1,-4.231492E-1,7.729057E-1,-4.5655064E-2,-2.5981333E-2,-5.225145E-1,6.8959646E-2,-4.5850504E-2,1.3781545E-2,-1.4619633E-2,-1.960529E-2,-4.4227302E-2],"categories":[],"categories_nodes":[],"categories_segments":[],"categories_sizes":[],"default_left":[0,0,0,0,0,0,0,0,0,0,0,0,0,0,0,0,0,0,0],"id":44,"left_children":[1,-1,3,5,-1,7,-1,9,11,13,-1,15,17,-1,-1,-1,-1,-1,-1],"loss_changes":[1.8099522E2,0E0,1.9230055E2,1.6492978E2,0E0,8.889673E1,0E0,8.0420715E1,3.034109E0,7.85578E1,0E0,6.254971E-1,1.0063362E-1,0E0,0E0,0E0,0E0,0E0,0E0],"parents":[2147483647,0,0,2,2,3,3,5,5,7,7,8,8,9,9,11,11,12,12],"right_children":[2,-1,4,6,-1,8,-1,10,12,14,-1,16,18,-1,-1,-1,-1,-1,-1],"split_conditions":[9.4E1,-4.713629E-2,3.363163E-3,5.061584E-3,-4.6092514E-2,3.848E1,-4.9920727E-2,2.823267E-4,3.858E1,1.658783E-2,-4.5655064E-2,1.2E2,3.864E1,6.8959646E-2,-4.5850504E-2,1.3781545E-2,-1.4619633E-2,-1.960529E-2,-4.4227302E-2],"split_indices":[0,0,8,12,0,21,0,16,21,10,0,1,21,0,0,0,0,0,0],"split_type":[0,0,0,0,0,0,0,0,0,0,0,0,0,0,0,0,0,0,0],"sum_hessian":[1.6050067E3,4.2959488E2,1.1754117E3,9.0886E2,2.6655182E2,7.732785E2,1.3558148E2,6.9321136E2,8.0067116E1,6.466922E2,4.6519165E1,1.700574E1,6.306138E1,6.072618E2,3.943042E1,6.598687E0,1.0407052E1,8.530704E0,5.4530674E1],"tree_param":{"num_deleted":"0","num_feature":"24","num_nodes":"19","size_leaf_vector":"1"}},{"base_weights":[2.2855438E-1,2.77899E-1,-4.6202745E-2,-4.7156356E-2,3.2872468E-1,6.3598645E-1,1.9208278E-1,7.091372E-1,1.2116114E-1,2.7965719E-2,4.9391258E-1,7.845769E-1,3.46409E-1,6.625496E-1,-4.5892674E-2,-3.240016E-1,1.3925345E-1,6.5353954E-1,-4.5153372E-2,4.7691423E-2,6.650904E-2,-4.3727096E-2,4.0755056E-2,2.6015438E-2,6.1144475E-2,-1.4164888E-2,-3.288713E-2,1.3796212E-2,-7.0171156E-3,2.8608562E-2,6.405174E-2],"categories":[],"categories_nodes":[],"categories_segments":[],"categories_sizes":[],"default_left":[0,0,0,0,0,0,0,0,0,0,0,0,0,0,0,0,0,0,0,0,0,0,0,0,0,0,0,0,0,0,0],"id":45,"left_children":[1,3,-1,-1,5,7,9,11,13,15,17,19,21,23,-1,25,27,29,-1,-1,-1,-1,-1,-1,-1,-1,-1,-1,-1,-1,-1],"loss_changes":[7.659623E1,8.010968E1,0E0,0E0,7.150336E1,1.9434082E1,5.870935E1,1.1835281E1,2.6089405E1,3.0262878E1,7.119289E1,2.1676178E0,1.2422554E1,6.401253E-1,0E0,2.086012E0,4.482279E0,1.50755005E1,0E0,0E0,0E0,0E0,0E0,0E0,0E0,0E0,0E0,0E0,0E0,0E0,0E0],"parents":[2147483647,0,0,1,1,4,4,5,5,6,6,7,7,8,8,9,9,10,10,11,11,12,12,13,13,15,15,16,16,17,17],"right_children":[2,4,-1,-1,6,8,10,12,14,16,18,20,22,24,-1,26,28,30,-1,-1,-1,-1,-1,-1,-1,-1,-1,-1,-1,-1,-1],"split_conditions":[1.658783E-2,9E1,-4.6202745E-2,-4.7156356E-2,9.4E1,3.363163E-3,1E0,1.3484751E-2,3.363163E-3,-2E0,3.363163E-3,-1.16E0,9.8341215E-1,-1.79E0,-4.5892674E-2,1.3484751E-2,1.38E1,-2.0526989E0,-4.5153372E-2,4.7691423E-2,6.650904E-2,-4.3727096E-2,4.0755056E-2,2.6015438E-2,6.1144475E-2,-1.4164888E-2,-3.288713E-2,1.3796212E-2,-7.0171156E-3,2.8608562E-2,6.405174E-2],"split_indices":[10,0,0,0,0,9,8,14,8,7,9,7,14,7,0,14,3,7,0,0,0,0,0,0,0,0,0,0,0,0,0],"split_type":[0,0,0,0,0,0,0,0,0,0,0,0,0,0,0,0,0,0,0,0,0,0,0,0,0,0,0,0,0,0,0],"sum_hessian":[1.9203909E3,1.8108925E3,1.0949848E2,9.903508E1,1.7118573E3,5.245788E2,1.1872786E3,4.5830945E2,6.626937E1,7.707976E2,4.164809E2,3.7727316E2,8.1036285E1,3.7529007E1,2.8740364E1,1.8383232E2,5.8696533E2,3.626412E2,5.3839672E1,8.0416306E1,2.9685687E2,1.1681466E1,6.935482E1,1.0838302E1,2.6690706E1,7.138345E1,1.1244887E2,5.1353156E2,7.343374E1,1.2279759E2,2.3984361E2],"tree_param":{"num_deleted":"0","num_feature":"24","num_nodes":"31","size_leaf_vector":"1"}},{"base_weights":[-1.1514591E-1,6.488607E-2,-2.4732792E-1,-4.0692642E-1,3.2170966E-1,-5.011011E-1,-5.8220413E-2,-1.5742587E-1,5.917276E-1,-2.4187985E-1,-5.121147E-1,5.5775523E-1,-1.8684967E-1,5.590226E-1,-3.4177974E-1,6.389324E-1,-4.3103956E-2,-4.2317232E-1,2.1884957E-2,-4.7184524E-1,-4.5280755E-2,6.260916E-2,-3.5748746E-2,-6.0449757E-2,-3.4354174E-1,5.446266E-2,1.250848E-2,-4.5477146E-1,-0E0,2.4560584E-1,7.5982493E-1,-1.3045836E-2,-3.8890496E-2,-3.8659766E-2,8.879648E-3,5.8430475E-3,-2.9154079E-2,-3.2559726E-2,-7.4758246E-3,-3.9985962E-2,-1.5500822E-2,1.9647738E-2,-2.765403E-2,-2.403658E-2,6.0635604E-2,6.301218E-2,3.1289328E-2],"categories":[],"categories_nodes":[],"categories_segments":[],"categories_sizes":[],"default_left":[0,0,0,0,0,0,0,0,0,0,0,0,0,0,0,0,0,0,0,0,0,0,0,0,0,0,0,0,0,0,0,0,0,0,0,0,0,0,0,0,0,0,0,0,0,0,0],"id":46,"left_children":[1,-1,3,5,7,9,11,13,15,17,19,21,23,25,27,29,-1,31,-1,33,-1,-1,-1,35,37,-1,-1,39,41,43,45,-1,-1,-1,-1,-1,-1,-1,-1,-1,-1,-1,-1,-1,-1,-1,-1],"loss_changes":[1.841604E2,0E0,1.19814514E2,3.359581E1,3.764187E1,1.8996582E0,1.7577969E1,1.4076594E1,1.0443954E1,3.6715894E0,9.683838E-1,9.254571E0,3.5035052E0,6.533351E-1,3.2690163E0,7.928589E0,0E0,1.5068626E-1,0E0,3.2180634E0,0E0,0E0,0E0,4.3898854E0,1.0788412E0,0E0,0E0,3.950615E-1,2.0423167E0,1.3033763E1,5.755005E-1,0E0,0E0,0E0,0E0,0E0,0E0,0E0,0E0,0E0,0E0,0E0,0E0,0E0,0E0,0E0,0E0],"parents":[2147483647,0,0,2,2,3,3,4,4,5,5,6,6,7,7,8,8,9,9,10,10,11,11,12,12,13,13,14,14,15,15,17,17,19,19,23,23,24,24,27,27,28,28,29,29,30,30],"right_children":[2,-1,4,6,8,10,12,14,16,18,20,22,24,26,28,30,-1,32,-1,34,-1,-1,-1,36,38,-1,-1,40,42,44,46,-1,-1,-1,-1,-1,-1,-1,-1,-1,-1,-1,-1,-1,-1,-1,-1],"split_conditions":[9E1,6.488607E-2,3.363163E-3,1.3484751E-2,3.96E1,9.12E1,9.8341215E-1,7.375823E-1,5.061584E-3,3.827E1,1.11E1,5.061584E-3,3.742E1,2.94E1,1.3484751E-2,1.1E1,-4.3103956E-2,9.02E-1,2.1884957E-2,2.42E1,-4.5280755E-2,6.260916E-2,-3.5748746E-2,9.73E1,3.97E1,5.446266E-2,1.250848E-2,3.79E1,8.568543E0,4.96E1,3.856E1,-1.3045836E-2,-3.8890496E-2,-3.8659766E-2,8.879648E-3,5.8430475E-3,-2.9154079E-2,-3.2559726E-2,-7.4758246E-3,-3.9985962E-2,-1.5500822E-2,1.9647738E-2,-2.765403E-2,-2.403658E-2,6.0635604E-2,6.301218E-2,3.1289328E-2],"split_indices":[0,0,9,14,5,1,14,9,11,2,3,11,2,6,14,6,0,20,0,6,0,0,0,0,6,0,0,5,3,5,2,0,0,0,0,0,0,0,0,0,0,0,0,0,0,0,0],"split_type":[0,0,0,0,0,0,0,0,0,0,0,0,0,0,0,0,0,0,0,0,0,0,0,0,0,0,0,0,0,0,0,0,0,0,0,0,0,0,0,0,0,0,0,0,0,0,0],"sum_hessian":[1.5016351E3,1.8629074E2,1.3153444E3,1.0279803E3,2.8736407E2,8.081959E2,2.1978442E2,1.0339983E2,1.8396423E2,3.5452568E1,7.7274335E2,3.6700024E1,1.830844E2,2.0204384E1,8.319545E1,1.7747159E2,6.4926467E0,2.6856924E1,8.595644E0,4.5383926E2,3.1890408E2,3.0502787E1,6.197237E0,1.0354792E2,7.9536476E1,1.41458235E1,6.058561E0,6.2143578E1,2.1051874E1,4.337594E1,1.3409564E2,7.212103E0,1.9644823E1,4.4588763E2,7.951631E0,7.205738E1,3.1490545E1,6.173277E1,1.7803707E1,5.0845364E1,1.1298216E1,1.2554838E1,8.497036E0,2.1013765E1,2.2362175E1,1.2234402E2,1.1751632E1],"tree_param":{"num_deleted":"0","num_feature":"24","num_nodes":"47","size_leaf_vector":"1"}},{"base_weights":[-1.5990792E-1,-3.501572E-1,7.152241E-2,-5.000033E-1,7.7537104E-2,-5.637539E-1,-1.5300266E-1,-5.780139E-1,6.969373E-2,-5.7268596E-1,7.973719E-2,-1.3710626E-2,-4.6476193E-2,-4.6880744E-2,-1.1651997E-2],"categories":[],"categories_nodes":[],"categories_segments":[],"categories_sizes":[],"default_left":[0,0,0,0,0,0,0,0,0,0,0,0,0,0,0],"id":47,"left_children":[1,3,-1,5,-1,7,9,11,-1,13,-1,-1,-1,-1,-1],"loss_changes":[2.970274E2,2.486757E2,0E0,2.461026E1,0E0,2.0141113E1,8.655506E1,7.522888E-1,0E0,4.0036392E-1,0E0,0E0,0E0,0E0,0E0],"parents":[2147483647,0,0,1,1,3,3,5,5,6,6,7,7,9,9],"right_children":[2,4,-1,6,-1,8,10,12,-1,14,-1,-1,-1,-1,-1],"split_conditions":[1.658783E-2,5.061584E-3,7.152241E-2,3.852E1,7.7537104E-2,1.878E2,4.0436125E-1,8.73E1,6.969373E-2,1.725E2,7.973719E-2,-1.3710626E-2,-4.6476193E-2,-4.6880744E-2,-1.1651997E-2],"split_indices":[10,11,0,2,0,1,14,0,0,1,0,0,0,0,0],"split_type":[0,0,0,0,0,0,0,0,0,0,0,0,0,0,0],"sum_hessian":[1.4783242E3,1.2533625E3,2.2496165E2,1.1265723E3,1.2679026E2,9.502008E2,1.7637149E2,9.4194476E2,8.256013E0,1.2994955E2,4.6421936E1,8.1290245E0,9.3381573E2,1.24795074E2,5.1544776E0],"tree_param":{"num_deleted":"0","num_feature":"24","num_nodes":"15","size_leaf_vector":"1"}},{"base_weights":[-9.089331E-3,1.5660276E-1,-4.567129E-2,2.2999133E-1,-4.5826647E-2,3.0204755E-1,-4.5753837E-2,3.562657E-1,-4.530493E-2,3.8444492E-1,-3.7850447E-2,2.9397406E-2,4.888955E-2,-3.3414975E-2,1.3150134E-2],"categories":[],"categories_nodes":[],"categories_segments":[],"categories_sizes":[],"default_left":[0,0,0,0,0,0,0,0,0,0,0,0,0,0,0],"id":48,"left_children":[1,3,-1,5,-1,7,-1,9,-1,11,13,-1,-1,-1,-1],"loss_changes":[1.48051E2,6.5770966E1,0E0,6.467233E1,0E0,4.851857E1,0E0,1.0858864E1,0E0,2.8437958E0,5.182891E0,0E0,0E0,0E0,0E0],"parents":[2147483647,0,0,1,1,3,3,5,5,7,7,9,9,10,10],"right_children":[2,4,-1,6,-1,8,-1,10,-1,12,14,-1,-1,-1,-1],"split_conditions":[3.363163E-3,3.852E1,-4.567129E-2,2.823267E-4,-4.5826647E-2,1.658783E-2,-4.5753837E-2,1.703E0,-4.530493E-2,1.559E2,1.655E2,2.9397406E-2,4.888955E-2,-3.3414975E-2,1.3150134E-2],"split_indices":[8,2,0,16,0,10,0,4,0,1,1,0,0,0,0],"split_type":[0,0,0,0,0,0,0,0,0,0,0,0,0,0,0],"sum_hessian":[1.5861975E3,1.2253525E3,3.6084503E2,1.1146462E3,1.107063E2,1.0239482E3,9.069801E1,9.649305E2,5.9017727E1,9.012867E2,6.364381E1,8.4337524E2,5.7911396E1,2.2072002E1,4.1571808E1],"tree_param":{"num_deleted":"0","num_feature":"24","num_nodes":"15","size_leaf_vector":"1"}},{"base_weights":[2.1922593E-1,2.6618424E-1,-4.566336E-2,-4.653017E-2,3.135088E-1,6.182368E-1,1.7753977E-1,6.5486246E-1,-4.1893914E-2,6.2311334E-3,4.8996627E-1,7.283935E-1,1.927269E-1,-1.0496681E-1,7.178095E-1,6.4365077E-1,-4.4651493E-2,6.4285986E-2,2.9166419E-2,5.790473E-2,-4.5347326E-2,-2.1825472E-2,4.662129E-2,6.097345E-2,1.5364211E-2,5.5077597E-2,-4.042419E-2],"categories":[],"categories_nodes":[],"categories_segments":[],"categories_sizes":[],"default_left":[0,0,0,0,0,0,0,0,0,0,0,0,0,0,0,0,0,0,0,0,0,0,0,0,0,0,0],"id":49,"left_children":[1,3,-1,-1,5,7,9,11,-1,13,15,17,19,21,23,25,-1,-1,-1,-1,-1,-1,-1,-1,-1,-1,-1],"loss_changes":[7.028178E1,7.185601E1,0E0,0E0,6.974338E1,2.2346024E1,6.265043E1,1.6700363E1,0E0,6.0434082E1,6.739875E1,1.1115189E1,2.9718529E1,7.613146E1,1.9026718E0,1.925946E1,0E0,0E0,0E0,0E0,0E0,0E0,0E0,0E0,0E0,0E0,